%YAML:1.0
opencv_ml_svm:
   format: 3
   svmType: C_SVC
   kernel:
      type: RBF
      gamma: 5.0625000000000009e-01
   C: 3.1250000000000000e+02
   term_criteria: { iterations:100 }
   var_count: 88
   class_count: 31
   class_labels: !!opencv-matrix
      rows: 31
      cols: 1
      dt: i
      data: [ 0, 1, 2, 3, 4, 5, 6, 7, 8, 9, 10, 11, 12, 13, 14, 15, 16,
          17, 18, 19, 20, 21, 22, 23, 24, 25, 26, 27, 28, 29, 30 ]
   sv_total: 267
   support_vectors:
      - [ 0., 0., 0., 0., 0., 0., 0., 0., 1.78890873e-03, 3.75670828e-02,
          4.47227210e-02, 4.47227210e-02, 4.47227210e-02, 4.47227210e-02,
          2.68336311e-02, 0., 1.43112699e-02, 3.22003588e-02,
          2.68336311e-02, 2.68336311e-02, 2.68336311e-02, 2.68336311e-02,
          3.93559933e-02, 3.57781746e-03, 3.93559933e-02, 1.78890873e-03,
          0., 0., 0., 0., 3.04114483e-02, 8.94454401e-03, 3.57781760e-02,
          1.07334526e-02, 3.57781746e-03, 8.94454401e-03, 8.94454401e-03,
          8.94454401e-03, 3.75670828e-02, 8.94454401e-03, 1.07334526e-02,
          4.29338105e-02, 3.93559933e-02, 4.47227210e-02, 4.47227210e-02,
          4.47227210e-02, 3.57781760e-02, 1.78890873e-03, 0.,
          1.43112699e-02, 1.78890880e-02, 1.78890880e-02, 1.78890880e-02,
          1.78890880e-02, 3.57781746e-03, 0., 0., 0., 0., 0., 0., 0., 0.,
          0., 0., 2.45080501e-01, 1.96779966e-01, 8.05008933e-02,
          1.23434708e-01, 2.64758497e-01, 8.94454420e-02, 0.,
          1.01967804e-01, 1.39534891e-01, 1.32379249e-01, 1.43112704e-01,
          1.43112704e-01, 1.43112704e-01, 1.73524156e-01, 2.32558139e-02,
          4.47227210e-02, 8.22898000e-02, 0., 0., 1.28801435e-01,
          1.16279073e-01, 8.22898000e-02, 1.62790701e-01 ]
      - [ 0., 0., 0., 0., 0., 0., 0., 0., 0., 3.43249440e-02,
          5.72082363e-02, 5.72082363e-02, 5.72082363e-02, 5.72082363e-02,
          2.51716245e-02, 0., 1.14416480e-02, 4.11899313e-02,
          2.28832960e-02, 2.28832960e-02, 1.14416480e-02, 1.37299774e-02,
          4.80549186e-02, 0., 2.28832960e-02, 1.37299774e-02, 0., 0., 0.,
          0., 3.43249440e-02, 0., 2.05949657e-02, 2.97482833e-02, 0.,
          6.86498871e-03, 1.14416480e-02, 1.37299774e-02, 4.34782617e-02,
          0., 2.28832942e-03, 5.49199097e-02, 5.72082363e-02,
          5.72082363e-02, 5.72082363e-02, 5.26315793e-02, 1.60183068e-02,
          0., 0., 6.86498871e-03, 1.60183068e-02, 1.14416480e-02,
          1.14416480e-02, 0., 0., 0., 0., 0., 0., 0., 0., 0., 0., 0., 0.,
          2.88329512e-01, 1.71624720e-01, 7.09382147e-02, 1.25858128e-01,
          2.97482848e-01, 4.57665920e-02, 0., 5.72082400e-02,
          1.80778041e-01, 1.53318077e-01, 1.55606404e-01, 1.48741424e-01,
          1.37299776e-01, 1.67048052e-01, 0., 5.72082363e-02,
          9.15331841e-02, 0., 0., 1.48741424e-01, 1.39588103e-01,
          9.15331841e-02, 1.96796328e-01 ]
      - [ 0., 1.24532999e-02, 2.24159397e-02, 1.86799504e-02,
          2.49065999e-02, 2.49065999e-02, 1.49439601e-02, 0.,
          8.71730968e-03, 3.11332494e-02, 3.11332494e-02, 3.11332494e-02,
          3.11332494e-02, 3.11332494e-02, 3.11332494e-02, 7.47198006e-03,
          2.24159397e-02, 2.24159397e-02, 6.22664997e-03, 6.22664997e-03,
          6.22664997e-03, 6.22664997e-03, 2.49065999e-02, 2.24159397e-02,
          2.49065999e-02, 8.71730968e-03, 0., 0., 0., 0., 9.96263977e-03,
          2.49065999e-02, 2.49065999e-02, 8.71730968e-03, 0., 0., 0., 0.,
          9.96263977e-03, 2.49065999e-02, 2.36612707e-02, 1.99252795e-02,
          6.22664997e-03, 6.22664997e-03, 6.22664997e-03, 6.22664997e-03,
          2.49065999e-02, 1.99252795e-02, 1.36986300e-02, 3.11332494e-02,
          3.11332494e-02, 3.11332494e-02, 3.11332494e-02, 3.11332494e-02,
          3.11332494e-02, 6.22664997e-03, 1.24532997e-03, 1.49439601e-02,
          2.24159397e-02, 1.86799504e-02, 1.86799504e-02, 1.86799504e-02,
          9.96263977e-03, 0., 1.18306354e-01, 2.02988788e-01,
          1.17061019e-01, 6.84931502e-02, 6.84931502e-02, 1.13325030e-01,
          2.06724778e-01, 1.04607724e-01, 1.19551681e-01, 1.49439603e-01,
          1.19551681e-01, 1.12079702e-01, 1.18306346e-01, 1.18306346e-01,
          1.56911582e-01, 1.05853051e-01, 6.35118261e-02, 9.58904102e-02,
          6.22664988e-02, 5.60398512e-02, 1.02117062e-01, 1.00871727e-01,
          1.02117062e-01, 2.19178081e-01 ]
      - [ 0., 1.48883378e-02, 1.86104216e-02, 2.35732011e-02,
          2.48138960e-02, 2.48138960e-02, 1.48883378e-02, 0.,
          9.92555823e-03, 3.10173705e-02, 3.10173705e-02, 3.10173705e-02,
          3.10173705e-02, 3.10173705e-02, 3.10173705e-02, 8.68486334e-03,
          2.10918114e-02, 2.10918114e-02, 6.20347401e-03, 6.20347401e-03,
          6.20347401e-03, 6.20347401e-03, 2.35732011e-02, 2.23325063e-02,
          2.48138960e-02, 8.68486334e-03, 0., 0., 0., 0., 1.24069480e-02,
          2.48138960e-02, 2.48138960e-02, 8.68486334e-03, 0., 0., 0., 0.,
          1.24069480e-02, 2.48138960e-02, 2.48138960e-02, 1.98511165e-02,
          6.20347401e-03, 6.20347401e-03, 6.20347401e-03, 6.20347401e-03,
          2.60545909e-02, 1.98511165e-02, 1.36476429e-02, 3.10173705e-02,
          3.10173705e-02, 3.10173705e-02, 3.10173705e-02, 3.10173705e-02,
          2.97766756e-02, 3.72208445e-03, 1.24069478e-03, 1.61290318e-02,
          2.23325063e-02, 1.86104216e-02, 1.86104216e-02, 1.86104216e-02,
          6.20347401e-03, 0., 1.21588089e-01, 2.04714641e-01,
          1.12903222e-01, 7.07195997e-02, 7.07195997e-02, 1.15384616e-01,
          2.02233255e-01, 1.01736970e-01, 1.20347396e-01, 1.51364759e-01,
          1.15384616e-01, 1.16625309e-01, 1.17866009e-01, 1.17866009e-01,
          1.56327546e-01, 1.04218364e-01, 6.45161271e-02, 1.00496277e-01,
          6.45161271e-02, 5.70719615e-02, 1.02977671e-01, 1.01736978e-01,
          1.01736978e-01, 2.24565759e-01 ]
      - [ 0., 0., 0., 0., 0., 0., 0., 0., 0., 1.85185182e-03,
          2.03703698e-02, 1.85185187e-02, 2.40740739e-02, 2.77777780e-02,
          7.40740728e-03, 0., 0., 3.14814821e-02, 4.62962948e-02,
          4.62962948e-02, 4.62962948e-02, 4.62962948e-02, 4.25925925e-02,
          5.55555569e-03, 7.40740728e-03, 3.88888903e-02, 1.85185182e-03,
          0., 0., 0., 2.59259250e-02, 2.40740739e-02, 9.25925933e-03,
          2.77777780e-02, 0., 0., 0., 0., 1.11111114e-02, 2.77777780e-02,
          5.55555569e-03, 4.07407396e-02, 9.25925933e-03, 9.25925933e-03,
          9.25925933e-03, 9.25925933e-03, 3.14814821e-02, 2.22222228e-02,
          0., 3.70370373e-02, 4.62962948e-02, 4.62962948e-02,
          4.62962948e-02, 4.62962948e-02, 4.07407396e-02, 1.85185182e-03,
          0., 1.85185182e-03, 1.85185187e-02, 1.85185187e-02,
          9.25925933e-03, 9.25925933e-03, 1.85185182e-03, 0., 0.,
          1.00000001e-01, 2.64814824e-01, 9.81481448e-02, 7.59259239e-02,
          1.37037039e-01, 2.64814794e-01, 5.92592582e-02, 2.22222228e-02,
          1.79629624e-01, 1.42592594e-01, 1.38888881e-01, 1.35185182e-01,
          1.38888881e-01, 1.61111116e-01, 8.14814791e-02, 2.03703698e-02,
          2.59259250e-02, 0., 0., 5.37037030e-02, 4.62962948e-02,
          2.22222209e-02, 7.77777806e-02 ]
      - [ 0., 0., 0., 0., 0., 0., 0., 0., 0., 3.84615385e-03,
          1.73076931e-02, 1.92307699e-02, 1.92307699e-02, 1.92307699e-02,
          1.92307692e-03, 0., 1.92307692e-03, 4.23076935e-02,
          4.80769239e-02, 4.80769239e-02, 4.80769239e-02, 4.80769239e-02,
          3.84615399e-02, 0., 1.73076931e-02, 3.26923095e-02, 0., 0., 0.,
          1.92307692e-03, 4.03846167e-02, 1.53846154e-02, 2.50000004e-02,
          1.92307699e-02, 0., 0., 0., 0., 2.30769236e-02, 1.92307699e-02,
          2.50000004e-02, 3.26923095e-02, 0., 0., 9.61538497e-03,
          1.15384618e-02, 4.03846167e-02, 7.69230770e-03, 5.76923089e-03,
          4.42307703e-02, 4.80769239e-02, 4.80769239e-02, 4.80769239e-02,
          4.80769239e-02, 3.07692308e-02, 0., 0., 3.84615385e-03,
          1.92307699e-02, 9.61538497e-03, 9.61538497e-03, 7.69230770e-03,
          0., 0., 0., 8.07692334e-02, 2.75000006e-01, 1.07692309e-01,
          8.65384638e-02, 1.26923084e-01, 2.73076922e-01, 5.00000007e-02,
          7.50000030e-02, 1.78846166e-01, 1.32692307e-01, 1.25000000e-01,
          1.34615391e-01, 1.36538461e-01, 1.75000012e-01, 4.23076935e-02,
          1.73076931e-02, 2.30769236e-02, 0., 0., 4.23076935e-02,
          3.84615399e-02, 2.11538468e-02, 5.96153885e-02 ]
      - [ 0., 0., 0., 0., 0., 0., 0., 0., 0., 1.27504552e-02,
          2.73224041e-02, 2.36794166e-02, 9.10746772e-03, 9.10746772e-03,
          5.46448072e-03, 0., 3.64298723e-03, 4.18943539e-02,
          4.55373414e-02, 4.55373414e-02, 4.55373414e-02, 4.55373414e-02,
          4.37158458e-02, 5.46448072e-03, 9.10746772e-03, 4.00728583e-02,
          0., 0., 9.10746772e-03, 9.10746772e-03, 3.82513665e-02,
          1.82149354e-02, 9.10746772e-03, 3.64298709e-02, 0., 0., 0., 0.,
          2.00364292e-02, 1.82149354e-02, 9.10746772e-03, 4.55373414e-02,
          2.00364292e-02, 1.82149354e-02, 1.82149354e-02, 1.09289614e-02,
          4.00728583e-02, 1.82149354e-02, 0., 2.55009104e-02,
          4.00728583e-02, 4.55373414e-02, 4.55373414e-02, 4.55373414e-02,
          4.18943539e-02, 3.64298723e-03, 0., 0., 0., 0., 0., 0., 0., 0.,
          0., 8.74316916e-02, 2.76867032e-01, 1.23861566e-01,
          8.37887004e-02, 1.80327863e-01, 2.47723132e-01, 0.,
          3.09653897e-02, 2.02185795e-01, 1.32969037e-01, 1.32969037e-01,
          1.27504557e-01, 1.20218582e-01, 1.89435333e-01, 6.37522712e-02,
          2.73224041e-02, 2.18579229e-02, 0., 0., 3.09653915e-02,
          5.64663000e-02, 4.00728583e-02, 4.73588333e-02 ]
      - [ 0., 7.78210117e-03, 2.59403381e-02, 2.59403381e-02,
          2.59403381e-02, 2.59403381e-02, 1.94552522e-02, 0.,
          2.59403372e-03, 2.98313871e-02, 3.24254222e-02, 3.24254222e-02,
          3.24254222e-02, 3.24254222e-02, 3.24254222e-02, 1.03761349e-02,
          1.42671857e-02, 2.59403381e-02, 2.59403372e-03, 0., 0., 0.,
          1.55642023e-02, 2.46433206e-02, 2.59403381e-02, 1.42671857e-02,
          0., 0., 0., 0., 0., 2.59403381e-02, 2.46433206e-02,
          1.55642023e-02, 0., 0., 0., 0., 6.48508454e-03, 2.59403381e-02,
          1.29701691e-02, 2.98313871e-02, 1.03761349e-02, 6.48508454e-03,
          6.48508454e-03, 1.94552522e-02, 2.85343714e-02, 1.68612190e-02,
          3.89105058e-03, 3.11284047e-02, 3.24254222e-02, 3.24254222e-02,
          3.24254222e-02, 3.24254222e-02, 2.85343714e-02, 3.89105058e-03,
          0., 1.03761349e-02, 2.59403381e-02, 2.59403381e-02,
          2.59403381e-02, 2.20492873e-02, 3.89105058e-03, 0.,
          1.30998701e-01, 2.04928666e-01, 8.30090791e-02, 6.61478639e-02,
          7.26329461e-02, 1.30998701e-01, 1.97146565e-01, 1.14137486e-01,
          8.43060985e-02, 1.64721146e-01, 1.29701689e-01, 1.23216607e-01,
          1.23216607e-01, 1.32295728e-01, 1.34889752e-01, 1.07652403e-01,
          6.87418953e-02, 1.07652396e-01, 5.96627779e-02, 7.13359267e-02,
          9.72762629e-02, 1.07652403e-01, 1.07652396e-01, 2.28274971e-01 ]
      - [ 0., 7.75193796e-03, 2.58397926e-02, 2.58397926e-02,
          2.58397926e-02, 2.58397926e-02, 7.75193796e-03, 0.,
          5.16795879e-03, 3.10077518e-02, 3.22997421e-02, 3.22997421e-02,
          3.22997421e-02, 3.22997421e-02, 3.22997421e-02, 7.75193796e-03,
          1.67958662e-02, 2.84237731e-02, 7.75193796e-03, 6.45994814e-03,
          6.45994814e-03, 6.45994814e-03, 2.84237731e-02, 1.93798449e-02,
          2.45478041e-02, 1.29198963e-02, 0., 0., 0., 0., 1.42118866e-02,
          2.58397926e-02, 2.58397926e-02, 7.75193796e-03, 0., 0., 0., 0.,
          1.42118866e-02, 2.58397926e-02, 2.06718352e-02, 2.32558139e-02,
          0., 0., 0., 1.29198970e-03, 2.32558139e-02, 2.06718352e-02,
          1.03359176e-02, 3.22997421e-02, 2.71317828e-02, 2.58397926e-02,
          2.58397926e-02, 2.71317828e-02, 2.97157615e-02, 5.16795879e-03,
          0., 1.93798449e-02, 2.58397926e-02, 2.58397926e-02,
          2.58397926e-02, 2.45478041e-02, 1.03359176e-02, 0.,
          1.18863046e-01, 2.05426365e-01, 1.20155036e-01, 7.75193796e-02,
          7.36434087e-02, 8.91472846e-02, 1.83462530e-01, 1.31782949e-01,
          1.03359178e-01, 1.62790701e-01, 1.18863046e-01, 1.16279066e-01,
          1.16279066e-01, 1.17571056e-01, 1.60206720e-01, 1.04651161e-01,
          6.58914745e-02, 9.68992263e-02, 5.94315231e-02, 5.94315231e-02,
          1.00775197e-01, 1.04651168e-01, 9.68992263e-02, 2.27390185e-01 ]
      - [ 0., 0., 1.15207378e-02, 1.15207378e-02, 1.84331797e-02,
          1.15207378e-02, 0., 0., 2.30414746e-03, 4.60829511e-02,
          5.76036870e-02, 5.76036870e-02, 5.76036870e-02, 5.76036870e-02,
          1.61290318e-02, 0., 2.07373276e-02, 3.68663594e-02,
          1.15207378e-02, 1.15207378e-02, 0., 6.91244239e-03,
          3.91705073e-02, 0., 3.45622115e-02, 1.61290318e-02, 0., 0., 0.,
          0., 4.60829511e-02, 0., 2.07373276e-02, 4.14746553e-02,
          1.15207378e-02, 1.15207378e-02, 1.15207378e-02, 2.76497696e-02,
          4.14746553e-02, 0., 2.30414746e-03, 4.83870953e-02,
          5.76036870e-02, 5.29953912e-02, 4.60829511e-02, 4.37788032e-02,
          1.15207378e-02, 0., 0., 0., 0., 0., 0., 0., 0., 0., 0., 0., 0.,
          0., 0., 0., 0., 0., 5.29953912e-02, 2.94930875e-01,
          1.26728117e-01, 9.67741907e-02, 1.65898621e-01, 2.62672812e-01,
          0., 0., 8.06451589e-02, 1.88940093e-01, 1.49769589e-01,
          1.45161286e-01, 1.33640558e-01, 1.47465438e-01, 1.54377878e-01,
          0., 6.91244230e-02, 1.15207374e-01, 2.99539175e-02,
          2.30414756e-02, 1.63594469e-01, 1.31336406e-01, 1.15207374e-01,
          2.32718900e-01 ]
      - [ 0., 1.06870225e-02, 3.05343512e-03, 0., 0., 0., 4.58015269e-03,
          1.52671756e-02, 1.52671756e-03, 3.51145044e-02, 1.37404576e-02,
          0., 0., 0., 2.13740449e-02, 2.90076341e-02, 2.13740449e-02,
          3.81679386e-02, 7.63358781e-03, 0., 0., 0., 2.29007639e-02,
          3.05343512e-02, 3.05343512e-02, 3.81679386e-02, 2.74809152e-02,
          2.29007639e-02, 2.29007639e-02, 2.29007639e-02, 3.66412215e-02,
          3.05343512e-02, 2.90076341e-02, 3.81679386e-02, 3.81679386e-02,
          3.81679386e-02, 3.81679386e-02, 3.81679386e-02, 3.81679386e-02,
          3.05343512e-02, 7.63358781e-03, 1.52671756e-02, 1.52671756e-02,
          1.67938937e-02, 1.67938937e-02, 1.52671756e-02, 3.20610702e-02,
          3.05343512e-02, 0., 0., 0., 0., 0., 0., 2.29007639e-02,
          3.05343512e-02, 0., 0., 0., 0., 0., 0., 6.10687025e-03,
          1.52671756e-02, 3.35877873e-02, 1.00763358e-01, 1.20610684e-01,
          2.32061073e-01, 2.88549602e-01, 1.49618328e-01, 5.34351170e-02,
          2.13740468e-02, 9.00763348e-02, 1.75572515e-01, 1.05343513e-01,
          7.78625980e-02, 7.78625980e-02, 7.63358772e-02, 1.84732825e-01,
          2.12213740e-01, 4.27480936e-02, 3.96946557e-02, 1.06870225e-02,
          2.29007639e-02, 3.66412215e-02, 6.41221404e-02, 5.34351133e-02,
          8.09160322e-02 ]
      - [ 0., 4.41176491e-03, 5.88235306e-03, 0., 0., 0., 8.82352982e-03,
          1.02941180e-02, 0., 2.64705885e-02, 2.20588241e-02, 0., 0., 0.,
          2.20588241e-02, 2.79411767e-02, 1.02941180e-02, 3.67647074e-02,
          1.76470596e-02, 0., 0., 0., 2.20588241e-02, 2.64705885e-02,
          2.64705885e-02, 3.67647074e-02, 2.05882359e-02, 2.20588241e-02,
          2.20588241e-02, 2.20588241e-02, 3.52941193e-02, 2.20588241e-02,
          2.94117648e-02, 3.67647074e-02, 3.67647074e-02, 3.67647074e-02,
          3.67647074e-02, 3.67647074e-02, 3.67647074e-02, 2.20588241e-02,
          1.47058824e-02, 2.94117648e-02, 2.94117648e-02, 2.94117648e-02,
          2.94117648e-02, 2.20588241e-02, 3.52941193e-02, 2.20588241e-02,
          0., 0., 0., 0., 0., 0., 2.20588241e-02, 2.20588241e-02, 0., 0.,
          0., 0., 0., 0., 1.17647061e-02, 1.17647061e-02, 2.94117667e-02,
          9.85294133e-02, 1.13235295e-01, 2.07352951e-01, 2.72058845e-01,
          2.11764708e-01, 4.41176482e-02, 2.35294122e-02, 8.08823556e-02,
          1.70588240e-01, 1.32352948e-01, 8.82352963e-02, 8.82352963e-02,
          8.08823556e-02, 1.94117650e-01, 1.64705887e-01, 5.00000007e-02,
          3.52941193e-02, 4.41176491e-03, 2.50000004e-02, 2.64705885e-02,
          7.20588267e-02, 5.73529415e-02, 7.05882385e-02 ]
      - [ 0., 7.37463124e-03, 7.37463124e-03, 0., 0., 0., 1.03244837e-02,
          1.47492625e-02, 0., 3.09734512e-02, 2.21238937e-02, 0., 0., 0.,
          2.21238937e-02, 2.80235987e-02, 1.17994100e-02, 3.68731581e-02,
          1.62241887e-02, 0., 0., 0., 2.21238937e-02, 2.21238937e-02,
          2.65486725e-02, 3.68731581e-02, 2.80235987e-02, 2.21238937e-02,
          2.35988200e-02, 2.50737462e-02, 3.53982300e-02, 2.21238937e-02,
          2.94985250e-02, 3.68731581e-02, 3.68731581e-02, 3.68731581e-02,
          3.68731581e-02, 3.68731581e-02, 3.68731581e-02, 2.21238937e-02,
          1.17994100e-02, 2.21238937e-02, 2.80235987e-02, 2.94985250e-02,
          2.35988200e-02, 2.21238937e-02, 3.53982300e-02, 2.21238937e-02,
          0., 0., 0., 0., 0., 0., 2.06489675e-02, 2.21238937e-02, 0., 0.,
          0., 0., 0., 0., 7.37463124e-03, 1.03244837e-02, 3.98230106e-02,
          1.03244841e-01, 1.09144546e-01, 2.19764009e-01, 2.72861362e-01,
          1.94690257e-01, 4.27728593e-02, 1.76991150e-02, 7.96460211e-02,
          1.71091452e-01, 1.38643071e-01, 8.84955749e-02, 8.40708017e-02,
          8.40708017e-02, 1.90265492e-01, 1.63716808e-01, 5.01474924e-02,
          4.12979349e-02, 7.37463124e-03, 3.24483775e-02, 3.09734512e-02,
          7.22713843e-02, 6.34218305e-02, 7.96460211e-02 ]
      - [ 0., 1.49253728e-02, 8.03673919e-03, 0., 0., 0., 0., 0.,
          9.18484479e-03, 2.87026409e-02, 2.18140073e-02, 0., 0., 0., 0.,
          0., 1.72215849e-02, 2.87026409e-02, 2.41102185e-02, 0., 0., 0.,
          0., 0., 2.29621120e-02, 2.87026409e-02, 2.87026409e-02,
          1.26291616e-02, 1.14810560e-02, 1.14810560e-02, 1.14810560e-02,
          2.29621120e-03, 2.29621120e-02, 2.87026409e-02, 2.87026409e-02,
          2.87026409e-02, 2.87026409e-02, 2.87026409e-02, 2.87026409e-02,
          1.37772672e-02, 2.29621120e-02, 2.87026409e-02, 2.87026409e-02,
          2.87026409e-02, 2.87026409e-02, 2.87026409e-02, 2.87026409e-02,
          2.18140073e-02, 1.49253728e-02, 2.87026409e-02, 2.41102185e-02,
          2.64064297e-02, 2.87026409e-02, 2.87026409e-02, 2.87026409e-02,
          1.72215849e-02, 4.59242240e-03, 1.72215849e-02, 3.44431680e-03,
          1.03329504e-02, 1.72215849e-02, 1.72215849e-02, 1.72215849e-02,
          6.88863359e-03, 2.29621120e-02, 5.97014949e-02, 7.00344443e-02,
          1.29735932e-01, 2.08955228e-01, 2.16991961e-01, 1.97474167e-01,
          9.41446647e-02, 1.14810564e-01, 2.04362810e-01, 1.67623430e-01,
          1.06773823e-01, 1.14810564e-01, 1.14810564e-01, 1.14810564e-01,
          6.19977042e-02, 2.18140073e-02, 2.87026409e-02, 1.49253728e-02,
          8.03673919e-03, 3.78874838e-02, 2.18140073e-02, 5.05166501e-02,
          3.21469568e-02 ]
      - [ 0., 0., 0., 0., 0., 0., 0., 0., 0., 4.33839485e-03,
          2.16919743e-02, 0., 0., 0., 2.60303691e-02, 1.51843820e-02, 0.,
          3.03687640e-02, 3.68763544e-02, 0., 0., 0., 3.90455537e-02,
          2.16919743e-02, 6.50759228e-03, 5.42299338e-02, 4.33839485e-03,
          0., 0., 0., 4.33839485e-02, 2.16919743e-02, 2.16919743e-02,
          5.42299338e-02, 4.55531441e-02, 5.42299338e-02, 5.42299338e-02,
          5.42299338e-02, 5.42299338e-02, 2.16919743e-02, 8.67678970e-03,
          3.25379595e-02, 3.25379595e-02, 3.25379595e-02, 3.25379595e-02,
          3.25379595e-02, 5.20607382e-02, 2.16919743e-02, 0., 0., 0., 0.,
          0., 0., 3.25379595e-02, 2.16919743e-02, 0., 0., 0., 0., 0., 0.,
          1.30151846e-02, 2.16919743e-03, 0., 6.72451183e-02,
          1.27982646e-01, 1.30151838e-01, 3.60086769e-01, 2.45119303e-01,
          5.42299338e-02, 1.51843820e-02, 3.68763581e-02, 1.75704986e-01,
          1.40997827e-01, 8.67678970e-02, 8.67678970e-02, 8.67678970e-02,
          2.60303676e-01, 1.25813454e-01, 3.68763581e-02, 4.33839485e-03,
          0., 0., 4.33839485e-03, 6.29067272e-02, 2.60303691e-02,
          4.12147492e-02 ]
      - [ 0., 0., 0., 0., 0., 0., 4.45434311e-03, 0., 0., 8.90868623e-03,
          3.78619172e-02, 0., 0., 0., 4.00890857e-02, 1.55902002e-02, 0.,
          4.00890857e-02, 3.11804004e-02, 0., 0., 0., 4.45434302e-02,
          2.22717151e-02, 1.55902002e-02, 5.56792878e-02, 2.22717151e-02,
          1.11358576e-02, 1.11358576e-02, 1.55902002e-02, 4.89977710e-02,
          1.55902002e-02, 2.00445428e-02, 5.56792878e-02, 5.56792878e-02,
          5.56792878e-02, 5.56792878e-02, 5.56792878e-02, 5.56792878e-02,
          1.33630289e-02, 0., 1.11358576e-02, 1.11358576e-02,
          1.11358576e-02, 1.11358576e-02, 1.11358576e-02, 5.12249433e-02,
          2.22717151e-02, 0., 0., 0., 0., 0., 0., 4.00890857e-02,
          1.78173725e-02, 0., 0., 0., 0., 0., 0., 4.45434311e-03, 0.,
          4.45434311e-03, 1.02449887e-01, 1.38084635e-01, 1.95991084e-01,
          3.67483288e-01, 1.29175946e-01, 5.79064563e-02, 4.45434311e-03,
          3.56347412e-02, 1.71492204e-01, 1.58129185e-01, 7.79509991e-02,
          7.79509991e-02, 8.24053437e-02, 2.89532304e-01, 1.06904231e-01,
          5.34521192e-02, 1.33630298e-02, 0., 4.45434311e-03,
          8.90868623e-03, 9.35412049e-02, 5.12249470e-02, 5.56792840e-02 ]
      - [ 0., 0., 0., 0., 0., 0., 2.91970791e-03, 1.16788317e-02, 0.,
          7.29927002e-03, 1.89781021e-02, 0., 0., 0., 2.18978096e-02,
          2.91970801e-02, 0., 3.06569338e-02, 2.18978096e-02, 0., 0., 0.,
          2.18978096e-02, 2.91970801e-02, 1.60583947e-02, 3.64963487e-02,
          2.77372263e-02, 7.29927002e-03, 7.29927002e-03, 1.16788317e-02,
          3.35766412e-02, 2.91970801e-02, 2.62773726e-02, 3.64963487e-02,
          3.64963487e-02, 3.64963487e-02, 3.64963487e-02, 3.64963487e-02,
          3.64963487e-02, 2.91970801e-02, 2.62773726e-02, 3.64963487e-02,
          3.64963487e-02, 3.64963487e-02, 3.35766412e-02, 2.91970801e-02,
          3.64963487e-02, 2.91970801e-02, 5.83941583e-03, 1.45985400e-02,
          2.91970791e-03, 0., 0., 0., 2.33576633e-02, 2.91970801e-02, 0.,
          0., 0., 0., 0., 0., 8.75912420e-03, 1.16788317e-02,
          1.45985391e-02, 7.73722604e-02, 1.03649631e-01, 1.69343069e-01,
          2.74452537e-01, 2.64233559e-01, 7.59124085e-02, 2.04379559e-02,
          7.44525567e-02, 1.62043795e-01, 1.44525543e-01, 8.02919641e-02,
          7.73722604e-02, 7.73722604e-02, 1.85401455e-01, 1.98540151e-01,
          4.81751822e-02, 1.02189779e-02, 0., 1.45985391e-02,
          7.29927002e-03, 7.00729936e-02, 2.91970801e-02, 6.27737194e-02 ]
      - [ 0., 1.13207549e-02, 3.77358496e-03, 0., 0., 0., 0., 0.,
          2.51572323e-03, 2.76729558e-02, 1.25786159e-02, 0., 0., 0., 0.,
          0., 7.54716992e-03, 3.14465426e-02, 1.25786159e-02, 0., 0., 0.,
          0., 0., 2.13836469e-02, 3.14465426e-02, 2.51572318e-02,
          6.28930796e-03, 6.28930796e-03, 6.28930796e-03, 6.28930796e-03,
          2.51572323e-03, 2.51572318e-02, 3.14465426e-02, 3.14465426e-02,
          3.14465426e-02, 3.14465426e-02, 3.14465426e-02, 3.14465426e-02,
          2.01257858e-02, 2.51572318e-02, 3.14465426e-02, 3.14465426e-02,
          3.14465426e-02, 3.14465426e-02, 3.14465426e-02, 3.14465426e-02,
          2.01257858e-02, 2.51572318e-02, 3.14465426e-02, 3.14465426e-02,
          3.14465426e-02, 3.14465426e-02, 3.14465426e-02, 3.14465426e-02,
          1.38364779e-02, 1.00628929e-02, 1.38364779e-02, 1.25786159e-02,
          1.25786159e-02, 1.25786159e-02, 1.25786159e-02, 1.25786159e-02,
          2.51572323e-03, 1.50943398e-02, 4.27672938e-02, 5.15723303e-02,
          1.05660379e-01, 2.33962268e-01, 2.33962268e-01, 2.27672964e-01,
          8.93081725e-02, 1.16981126e-01, 2.10062906e-01, 1.61006287e-01,
          1.13207549e-01, 1.13207549e-01, 1.13207549e-01, 1.13207549e-01,
          5.91194965e-02, 1.25786159e-02, 2.76729558e-02, 1.13207549e-02,
          3.77358496e-03, 3.01886797e-02, 1.25786159e-02, 4.02515717e-02,
          1.76100638e-02 ]
      - [ 0., 0., 0., 0., 0., 0., 0., 0., 0., 0., 3.01204808e-03, 0., 0.,
          0., 1.80722885e-02, 0., 0., 1.50602413e-02, 4.81927693e-02, 0.,
          0., 0., 6.02409653e-02, 0., 0., 5.72289154e-02, 3.01204827e-02,
          0., 0., 0., 6.62650615e-02, 0., 6.02409616e-03, 7.53012076e-02,
          6.92771077e-02, 6.02409653e-02, 7.53012076e-02, 6.32530153e-02,
          7.53012076e-02, 0., 0., 3.01204827e-02, 3.01204827e-02,
          3.01204827e-02, 3.01204827e-02, 3.01204827e-02, 6.92771077e-02,
          0., 0., 0., 0., 0., 0., 0., 5.42168692e-02, 0., 0., 0., 0., 0.,
          0., 0., 3.01204808e-03, 0., 0., 2.10843366e-02, 1.23493977e-01,
          1.53614461e-01, 4.24698800e-01, 2.19879523e-01, 5.42168692e-02,
          3.01204808e-03, 6.02409616e-03, 1.77710846e-01, 1.80722892e-01,
          9.03614461e-02, 1.05421692e-01, 9.33734998e-02, 3.46385539e-01,
          0., 3.01204808e-03, 0., 0., 0., 0., 2.10843366e-02,
          3.01204808e-03, 1.80722885e-02 ]
      - [ 0., 0., 0., 0., 0., 0., 0., 0., 0., 9.77995154e-03, 0., 0., 0.,
          2.44498788e-03, 2.20048893e-02, 0., 9.77995154e-03,
          5.62347174e-02, 0., 0., 2.44498788e-03, 4.15647924e-02,
          6.11246936e-02, 0., 2.44498774e-02, 3.17848399e-02, 0., 0.,
          3.17848399e-02, 5.13447449e-02, 6.11246936e-02, 0.,
          2.44498774e-02, 1.71149150e-02, 0., 1.46699268e-02,
          5.37897311e-02, 2.44498788e-03, 6.11246936e-02, 0.,
          1.71149150e-02, 4.15647924e-02, 1.22249387e-02, 5.62347174e-02,
          1.71149150e-02, 0., 6.11246936e-02, 0., 2.44498788e-03,
          4.88997549e-02, 6.11246936e-02, 1.95599031e-02, 0., 0.,
          5.86797073e-02, 0., 0., 2.44498788e-03, 7.33496342e-03, 0., 0.,
          0., 1.46699268e-02, 0., 0., 3.42298299e-02, 1.71149150e-01,
          2.00488999e-01, 1.73594132e-01, 2.05378979e-01, 1.90709040e-01,
          2.44498774e-02, 7.82396123e-02, 2.07823962e-01, 8.06845948e-02,
          9.04645473e-02, 1.05134472e-01, 9.77995098e-02, 3.39853287e-01,
          0., 0., 9.77995154e-03, 0., 0., 1.22249397e-02, 2.20048893e-02,
          9.77995154e-03, 2.44498774e-02 ]
      - [ 0., 0., 0., 0., 0., 0., 2.60707643e-02, 1.67597774e-02, 0.,
          2.23463681e-02, 0., 0., 0., 1.86219737e-02, 4.65549342e-02,
          1.86219737e-02, 1.67597774e-02, 3.72439474e-02, 0., 0.,
          1.11731840e-02, 4.46927361e-02, 4.46927361e-02, 1.86219737e-02,
          2.79329605e-02, 2.42085662e-02, 0., 5.58659201e-03,
          4.28305417e-02, 2.79329605e-02, 1.86219737e-02, 1.86219737e-02,
          2.79329605e-02, 2.23463681e-02, 0., 3.35195549e-02,
          4.09683436e-02, 5.58659201e-03, 1.86219737e-02, 1.86219737e-02,
          2.42085662e-02, 4.46927361e-02, 4.09683436e-02, 4.65549342e-02,
          7.44878966e-03, 0., 1.86219737e-02, 1.86219737e-02,
          1.86219742e-03, 4.28305417e-02, 4.65549342e-02, 2.23463681e-02,
          0., 0., 9.31098685e-03, 9.31098685e-03, 0., 3.72439483e-03,
          7.44878966e-03, 0., 0., 0., 0., 0., 4.28305417e-02,
          1.06145248e-01, 1.73184350e-01, 1.65735573e-01, 1.67597771e-01,
          2.01117322e-01, 1.32216021e-01, 1.11731850e-02, 9.86964628e-02,
          1.97392926e-01, 9.49720666e-02, 1.08007446e-01, 1.02420859e-01,
          9.68342647e-02, 1.82495341e-01, 1.19180635e-01, 1.86219737e-02,
          4.84171323e-02, 0., 4.28305417e-02, 4.09683436e-02,
          6.51769042e-02, 4.84171323e-02, 1.00558661e-01 ]
      - [ 1.43884891e-03, 1.58273373e-02, 0., 0., 0., 0., 1.87050365e-02,
          1.72661878e-02, 1.87050365e-02, 3.30935270e-02, 0., 0., 0.,
          1.00719426e-02, 3.59712243e-02, 2.87769791e-02, 2.73381304e-02,
          1.87050365e-02, 0., 0., 2.87769781e-03, 3.30935270e-02,
          3.59712243e-02, 2.87769791e-02, 2.87769791e-02, 8.63309391e-03,
          0., 1.43884891e-03, 2.58992799e-02, 3.30935270e-02,
          3.02158277e-02, 2.87769791e-02, 2.87769791e-02, 1.15107913e-02,
          0., 2.15827338e-02, 3.45323756e-02, 5.75539563e-03,
          8.63309391e-03, 2.87769791e-02, 2.01438852e-02, 3.45323756e-02,
          2.44604312e-02, 3.59712243e-02, 1.58273373e-02, 0.,
          7.19424477e-03, 2.87769791e-02, 8.63309391e-03, 3.59712243e-02,
          3.59712243e-02, 2.44604312e-02, 0., 0., 2.01438852e-02,
          2.87769791e-02, 0., 1.15107913e-02, 2.30215825e-02,
          1.43884891e-03, 0., 0., 5.75539563e-03, 1.43884895e-02,
          5.32374121e-02, 1.26618713e-01, 1.46762595e-01, 1.56834543e-01,
          1.39568344e-01, 1.66906476e-01, 1.53956831e-01, 5.61151095e-02,
          1.33812949e-01, 1.69784173e-01, 8.34532380e-02, 8.48920867e-02,
          7.91366920e-02, 8.20143893e-02, 1.62589937e-01, 2.04316556e-01,
          3.02158277e-02, 5.17985635e-02, 1.72661860e-02, 3.59712243e-02,
          6.18705079e-02, 6.47482052e-02, 5.17985635e-02, 1.28057554e-01 ]
      - [ 0., 0., 0., 0., 0., 0., 0., 0., 0., 5.60224103e-03, 0., 0., 0.,
          0., 1.12044821e-02, 0., 1.12044821e-02, 6.72268942e-02,
          1.12044821e-02, 0., 0., 4.48179282e-02, 5.60224093e-02, 0.,
          3.36134471e-02, 2.80112047e-02, 0., 0., 3.36134471e-02,
          6.44257739e-02, 5.60224093e-02, 0., 3.36134471e-02,
          1.40056023e-02, 0., 3.64145674e-02, 6.44257739e-02,
          1.12044821e-02, 4.20168079e-02, 0., 1.96078438e-02,
          6.16246499e-02, 5.60224093e-02, 6.72268942e-02, 1.68067235e-02,
          0., 4.20168079e-02, 0., 0., 3.36134471e-02, 4.20168079e-02,
          5.60224103e-03, 0., 0., 3.08123250e-02, 0., 0., 0., 0., 0., 0.,
          0., 0., 0., 0., 1.68067235e-02, 1.90476194e-01, 2.15686277e-01,
          2.01680675e-01, 2.63305336e-01, 1.12044819e-01, 0.,
          9.80392173e-02, 2.10084036e-01, 1.09243698e-01, 1.09243706e-01,
          1.14845946e-01, 1.20448187e-01, 2.38095239e-01, 0., 0.,
          5.60224103e-03, 0., 0., 5.60224103e-03, 1.12044821e-02,
          5.60224103e-03, 1.12044821e-02 ]
      - [ 0., 0., 0., 0., 0., 0., 0., 0., 0., 0., 0., 0., 0., 0., 0., 0.,
          0., 3.20855603e-02, 2.94117648e-02, 0., 0., 2.13903747e-02,
          5.08021377e-02, 5.34759369e-03, 5.34759369e-03, 6.41711205e-02,
          2.13903747e-02, 0., 2.67379675e-02, 6.41711205e-02,
          6.68449178e-02, 1.33689838e-02, 1.33689838e-02, 5.88235296e-02,
          0., 3.74331549e-02, 6.14973269e-02, 1.87165774e-02,
          5.61497323e-02, 1.33689838e-02, 5.34759369e-03, 6.41711205e-02,
          5.61497323e-02, 5.88235296e-02, 1.60427801e-02, 0.,
          5.34759350e-02, 1.33689838e-02, 0., 1.06951874e-02,
          4.01069522e-02, 2.67379684e-03, 0., 0., 1.87165774e-02, 0., 0.,
          0., 0., 0., 0., 0., 0., 0., 0., 0., 1.39037430e-01,
          2.62032092e-01, 2.59358287e-01, 2.67379671e-01, 7.21925125e-02,
          0., 2.40641721e-02, 2.29946524e-01, 1.47058830e-01,
          9.89304781e-02, 1.04278073e-01, 1.04278073e-01, 2.45989293e-01,
          4.54545468e-02, 0., 0., 0., 0., 0., 0., 0., 0. ]
      - [ 0., 0., 0., 0., 0., 0., 0., 0., 0., 3.57142873e-02,
          9.52380989e-03, 0., 0., 0., 7.14285718e-03, 0., 2.14285720e-02,
          5.95238097e-02, 1.19047621e-02, 0., 0., 2.85714287e-02,
          5.95238097e-02, 2.14285720e-02, 2.38095243e-02, 2.85714287e-02,
          0., 4.76190494e-03, 4.76190485e-02, 5.95238097e-02,
          5.95238097e-02, 2.38095243e-02, 2.14285720e-02, 4.76190485e-02,
          2.61904765e-02, 5.95238097e-02, 5.00000007e-02, 9.52380989e-03,
          2.61904765e-02, 2.38095243e-02, 2.38095247e-03, 4.76190485e-02,
          5.95238097e-02, 3.33333351e-02, 2.38095247e-03, 0.,
          3.33333351e-02, 2.38095243e-02, 0., 0., 0., 0., 0., 0.,
          1.90476198e-02, 1.19047621e-02, 0., 0., 0., 0., 0., 0., 0., 0.,
          0., 5.23809530e-02, 2.02380955e-01, 2.47619048e-01,
          2.64285713e-01, 2.02380955e-01, 3.09523828e-02, 0.,
          6.90476224e-02, 2.19047621e-01, 1.07142858e-01, 9.76190493e-02,
          1.00000001e-01, 9.76190493e-02, 2.04761907e-01, 1.04761906e-01,
          9.52380989e-03, 3.57142873e-02, 0., 0., 3.57142873e-02,
          1.66666675e-02, 4.52380963e-02, 7.14285718e-03 ]
      - [ 0., 0., 0., 0., 0., 0., 0., 0., 0., 0., 0., 0., 0., 0.,
          2.20994484e-02, 5.52486209e-03, 0., 1.47329653e-02,
          3.31491716e-02, 0., 0., 2.76243091e-02, 3.68324108e-02,
          1.84162054e-02, 7.36648263e-03, 4.41988967e-02, 3.49907912e-02,
          0., 1.10497242e-02, 2.76243091e-02, 1.84162054e-02,
          1.84162054e-02, 1.84162054e-02, 3.31491716e-02, 1.84162066e-03,
          7.36648263e-03, 4.23572734e-02, 2.20994484e-02, 3.31491716e-02,
          1.84162054e-02, 1.84162054e-02, 3.49907912e-02, 9.20810271e-03,
          3.86740342e-02, 4.05156538e-02, 1.84162066e-03, 3.68324108e-02,
          1.84162054e-02, 1.65745858e-02, 4.60405163e-02, 4.60405163e-02,
          4.05156538e-02, 1.10497242e-02, 0., 3.68324108e-02,
          1.84162054e-02, 0., 2.76243091e-02, 3.13075520e-02,
          7.36648263e-03, 0., 0., 1.84162054e-02, 3.68324132e-03, 0.,
          2.76243109e-02, 1.30755067e-01, 1.62062615e-01, 1.76795572e-01,
          1.98895022e-01, 2.15469614e-01, 8.83977935e-02, 6.07734807e-02,
          2.00736657e-01, 1.56537756e-01, 9.39226523e-02, 1.04972377e-01,
          7.91896880e-02, 2.02578261e-01, 1.01289131e-01, 5.52486209e-03,
          0., 0., 0., 0., 2.76243109e-02, 0., 2.76243109e-02 ]
      - [ 0., 2.38095247e-03, 0., 0., 0., 0., 4.76190494e-03, 0., 0.,
          3.80952395e-02, 1.19047621e-02, 0., 0., 7.14285718e-03,
          5.23809530e-02, 9.52380989e-03, 2.38095247e-03, 5.71428575e-02,
          4.76190494e-03, 0., 2.38095247e-03, 5.23809530e-02,
          5.95238097e-02, 1.19047621e-02, 1.19047621e-02, 3.80952395e-02,
          0., 2.38095247e-03, 5.00000007e-02, 2.85714287e-02,
          3.80952395e-02, 1.19047621e-02, 1.19047621e-02, 3.57142873e-02,
          0., 4.52380963e-02, 4.52380963e-02, 0., 3.57142873e-02,
          1.19047621e-02, 2.38095247e-03, 5.47619052e-02, 4.76190485e-02,
          5.00000007e-02, 2.38095247e-03, 0., 3.57142873e-02,
          1.19047621e-02, 0., 3.33333351e-02, 4.04761918e-02,
          4.76190494e-03, 0., 0., 2.61904765e-02, 7.14285718e-03, 0., 0.,
          0., 0., 0., 0., 0., 0., 7.14285765e-03, 1.19047619e-01,
          1.90476194e-01, 1.80952385e-01, 1.85714290e-01, 2.04761907e-01,
          1.11904763e-01, 0., 2.85714287e-02, 2.59523809e-01,
          1.04761906e-01, 1.02380954e-01, 1.00000001e-01, 8.80952403e-02,
          2.52380967e-01, 6.42857179e-02, 2.14285720e-02, 4.28571440e-02,
          2.38095247e-03, 4.76190494e-03, 4.52380963e-02, 7.38095269e-02,
          5.47619052e-02, 7.14285746e-02 ]
      - [ 0., 0., 0., 0., 0., 0., 9.99999978e-03, 1.87500007e-02, 0.,
          1.62499994e-02, 1.87500007e-02, 0., 0., 7.49999983e-03,
          3.12500000e-02, 2.50000004e-02, 1.37499999e-02, 3.12500000e-02,
          2.25000009e-02, 0., 1.24999997e-03, 2.62499992e-02,
          3.12500000e-02, 2.50000004e-02, 2.12500002e-02, 2.74999999e-02,
          7.49999983e-03, 0., 1.99999996e-02, 3.12500000e-02,
          3.12500000e-02, 2.50000004e-02, 2.50000004e-02, 1.62499994e-02,
          0., 1.62499994e-02, 3.12500000e-02, 1.75000001e-02,
          2.12500002e-02, 2.50000004e-02, 2.37499997e-02, 2.62499992e-02,
          2.12500002e-02, 3.12500000e-02, 2.62499992e-02, 1.24999997e-03,
          1.87500007e-02, 2.50000004e-02, 1.87500007e-02, 3.12500000e-02,
          3.12500000e-02, 2.74999999e-02, 3.74999992e-03, 0.,
          1.87500007e-02, 2.50000004e-02, 7.49999983e-03, 2.37499997e-02,
          2.12500002e-02, 4.99999989e-03, 0., 0., 6.25000009e-03,
          1.12500004e-02, 2.87500005e-02, 9.87500027e-02, 1.51250005e-01,
          1.63749993e-01, 1.52500004e-01, 1.73749998e-01, 1.56250000e-01,
          7.50000030e-02, 1.09999999e-01, 1.72499999e-01, 1.22500002e-01,
          7.99999982e-02, 8.24999958e-02, 8.37500021e-02, 1.68750003e-01,
          1.80000007e-01, 4.37500030e-02, 2.62499992e-02, 0.,
          2.87500005e-02, 2.37499997e-02, 7.50000030e-02, 4.50000018e-02,
          8.25000033e-02 ]
      - [ 0., 0., 0., 0., 0., 0., 1.42045459e-02, 0., 0., 4.26136367e-02,
          0., 0., 0., 1.13636367e-02, 6.81818202e-02, 0., 1.42045459e-02,
          4.54545468e-02, 0., 0., 0., 5.39772734e-02, 7.10227266e-02, 0.,
          1.42045459e-02, 1.98863633e-02, 0., 0., 3.69318165e-02,
          2.55681816e-02, 4.54545468e-02, 0., 1.42045459e-02,
          1.98863633e-02, 0., 2.27272734e-02, 4.82954532e-02, 0.,
          4.82954532e-02, 0., 5.68181835e-03, 5.39772734e-02,
          2.55681816e-02, 5.68181835e-02, 5.68181835e-03, 0.,
          5.68181835e-02, 0., 0., 3.40909101e-02, 6.81818202e-02,
          1.13636367e-02, 0., 0., 5.68181835e-02, 0., 0., 0., 0., 0., 0.,
          0., 8.52272753e-03, 0., 1.42045459e-02, 1.22159094e-01,
          1.84659094e-01, 1.42045453e-01, 1.53409094e-01, 2.04545453e-01,
          1.70454547e-01, 8.52272753e-03, 4.82954569e-02, 2.15909094e-01,
          9.37500000e-02, 9.09090936e-02, 9.09090862e-02, 9.09090936e-02,
          3.69318187e-01, 0., 0., 5.68181835e-02, 0., 1.42045459e-02,
          5.39772734e-02, 6.81818202e-02, 5.68181835e-02, 7.95454532e-02 ]
      - [ 0., 0., 0., 0., 0., 0., 0., 0., 0., 3.44827585e-02,
          2.29885057e-03, 0., 0., 0., 2.52873562e-02, 0., 1.60919540e-02,
          5.51724136e-02, 2.29885057e-03, 0., 0., 0., 5.51724136e-02,
          1.60919540e-02, 2.29885057e-02, 2.98850574e-02, 0.,
          1.60919540e-02, 1.60919540e-02, 0., 2.98850574e-02,
          2.98850574e-02, 2.29885057e-02, 2.98850574e-02, 0.,
          2.98850574e-02, 2.75862068e-02, 0., 2.98850574e-02,
          2.52873562e-02, 1.37931034e-02, 5.51724136e-02, 2.98850574e-02,
          5.74712642e-02, 5.28735630e-02, 2.52873562e-02, 5.51724136e-02,
          4.59770113e-03, 0., 3.21839079e-02, 4.59770113e-02,
          2.29885057e-02, 2.29885057e-02, 4.59770113e-02, 1.83908045e-02,
          0., 0., 0., 0., 0., 0., 0., 0., 0., 0., 6.20689653e-02,
          1.44827589e-01, 1.44827589e-01, 1.65517241e-01, 2.94252872e-01,
          1.88505739e-01, 0., 7.58620650e-02, 2.36781612e-01,
          8.04597735e-02, 1.26436785e-01, 1.19540229e-01, 7.12643713e-02,
          2.13793099e-01, 7.58620650e-02, 2.29885057e-03, 3.44827585e-02,
          0., 0., 3.44827585e-02, 2.75862068e-02, 3.67816091e-02,
          2.52873562e-02 ]
      - [ 0., 0., 0., 0., 0., 1.05263162e-02, 9.02255625e-03, 0., 0.,
          1.05263162e-02, 2.55639106e-02, 0., 0., 2.25563906e-02,
          3.75939831e-02, 7.51879718e-03, 4.51127812e-03, 3.60902250e-02,
          2.40601506e-02, 0., 0., 1.80451125e-02, 3.75939831e-02,
          2.40601506e-02, 1.95488725e-02, 3.60902250e-02, 7.51879718e-03,
          1.05263162e-02, 1.05263162e-02, 0., 2.85714287e-02,
          3.00751887e-02, 2.25563906e-02, 2.25563906e-02, 0.,
          3.15789469e-02, 2.85714287e-02, 3.00751883e-03, 3.45864668e-02,
          2.55639106e-02, 1.95488725e-02, 1.65413525e-02, 3.75939831e-02,
          2.55639106e-02, 9.02255625e-03, 3.75939831e-02, 3.75939831e-02,
          1.05263162e-02, 6.01503765e-03, 3.60902250e-02, 3.75939831e-02,
          2.55639106e-02, 3.75939831e-02, 3.75939831e-02, 2.40601506e-02,
          0., 0., 3.00751883e-03, 1.05263162e-02, 0., 4.51127812e-03,
          4.51127812e-03, 0., 0., 1.95488725e-02, 1.03759401e-01,
          1.44360900e-01, 1.42857149e-01, 1.68421060e-01, 1.93984956e-01,
          2.04511270e-01, 2.25563906e-02, 7.21804500e-02, 1.60902247e-01,
          1.42857134e-01, 9.32330862e-02, 9.02255625e-02, 1.33834586e-01,
          2.09022552e-01, 9.77443606e-02, 4.36090231e-02, 1.95488725e-02,
          1.05263162e-02, 9.02255625e-03, 3.30827087e-02, 7.06766918e-02,
          5.56390993e-02, 6.76691681e-02 ]
      - [ 0., 2.13675220e-02, 0., 0., 0., 0., 1.28205130e-02, 0.,
          1.13960113e-02, 3.41880359e-02, 0., 0., 0., 0., 3.56125347e-02,
          9.97150969e-03, 2.13675220e-02, 2.56410260e-02, 0., 0., 0., 0.,
          2.56410260e-02, 2.13675220e-02, 2.84900293e-02, 1.56695154e-02,
          0., 1.99430194e-02, 1.28205130e-02, 0., 2.13675220e-02,
          2.84900293e-02, 2.84900293e-02, 1.85185187e-02, 0.,
          3.27635333e-02, 1.99430194e-02, 0., 2.13675220e-02,
          2.42165234e-02, 1.85185187e-02, 3.27635333e-02, 2.42165234e-02,
          3.56125347e-02, 3.56125347e-02, 2.13675220e-02, 3.41880359e-02,
          1.42450146e-02, 7.12250732e-03, 3.56125347e-02, 3.56125347e-02,
          3.27635333e-02, 3.41880359e-02, 3.56125347e-02, 3.13390307e-02,
          1.42450142e-03, 0., 1.56695154e-02, 2.56410260e-02,
          2.84900283e-03, 5.69800567e-03, 2.27920227e-02, 5.69800567e-03,
          0., 3.41880359e-02, 9.11680907e-02, 9.40170959e-02,
          1.26780629e-01, 1.45299152e-01, 2.16524214e-01, 2.13675216e-01,
          7.83475786e-02, 1.15384616e-01, 1.99430197e-01, 8.54700804e-02,
          1.23931624e-01, 1.08262107e-01, 7.97720775e-02, 1.88034192e-01,
          9.97150987e-02, 9.97150969e-03, 4.70085479e-02, 2.13675220e-02,
          1.28205130e-02, 4.55840454e-02, 4.55840454e-02, 4.70085479e-02,
          7.83475786e-02 ]
      - [ 0., 0., 0., 0., 0., 0., 0., 0., 0., 0., 2.77008303e-03, 0., 0.,
          0., 5.54016605e-03, 0., 0., 3.32409963e-02, 2.77008303e-02, 0.,
          0., 8.31024908e-03, 5.26315793e-02, 0., 0., 6.37119114e-02,
          8.31024908e-03, 2.77008303e-03, 1.10803321e-02, 0.,
          5.26315793e-02, 1.66204982e-02, 0., 6.09418266e-02, 0.,
          2.77008303e-02, 4.43213284e-02, 0., 4.15512472e-02,
          2.21606642e-02, 0., 5.26315793e-02, 4.43213284e-02,
          5.81717454e-02, 6.64819926e-02, 4.15512472e-02, 6.37119114e-02,
          2.77008303e-03, 0., 1.38504151e-02, 5.26315793e-02,
          3.32409963e-02, 2.21606642e-02, 5.26315793e-02, 1.38504151e-02,
          0., 0., 0., 0., 0., 0., 0., 0., 0., 0., 8.31024908e-03,
          1.21883653e-01, 1.55124649e-01, 1.96675897e-01, 3.29639882e-01,
          1.88365653e-01, 0., 0., 2.24376723e-01, 1.35734066e-01,
          1.21883653e-01, 1.44044310e-01, 1.02493078e-01, 2.29916900e-01,
          4.15512472e-02, 2.77008303e-03, 0., 0., 0., 0., 8.31024908e-03,
          2.77008303e-03, 5.54016605e-03 ]
      - [ 0., 2.04379559e-02, 1.45985396e-03, 0., 0., 0., 1.75182484e-02,
          1.45985396e-03, 1.02189779e-02, 3.64963487e-02, 4.37956210e-03,
          0., 0., 0., 3.64963487e-02, 1.45985400e-02, 2.77372263e-02,
          2.62773726e-02, 0., 1.45985396e-03, 1.45985396e-03, 0.,
          2.33576633e-02, 2.91970801e-02, 2.91970801e-02, 1.45985400e-02,
          0., 1.60583947e-02, 1.89781021e-02, 0., 1.16788317e-02,
          2.91970801e-02, 2.91970801e-02, 1.60583947e-02, 0.,
          2.62773726e-02, 2.91970801e-02, 0., 1.16788317e-02,
          2.91970801e-02, 2.48175189e-02, 3.06569338e-02, 8.75912420e-03,
          3.50364968e-02, 3.35766412e-02, 8.75912420e-03, 2.77372263e-02,
          2.62773726e-02, 7.29927002e-03, 3.50364968e-02, 3.64963487e-02,
          2.91970801e-02, 3.06569338e-02, 3.64963487e-02, 3.64963487e-02,
          8.75912420e-03, 0., 8.75912420e-03, 1.75182484e-02,
          2.91970791e-03, 2.91970791e-03, 2.48175189e-02, 1.31386863e-02,
          0., 4.08759117e-02, 1.02189779e-01, 1.09489053e-01,
          1.19708031e-01, 1.41605839e-01, 1.95620432e-01, 2.20437944e-01,
          7.00729936e-02, 1.28467157e-01, 1.88321173e-01, 6.86131343e-02,
          1.10948905e-01, 1.16788320e-01, 7.00729936e-02, 1.78102180e-01,
          1.38686135e-01, 1.89781021e-02, 5.40145971e-02, 2.04379559e-02,
          2.04379559e-02, 4.67153266e-02, 5.54744527e-02, 5.83941601e-02,
          8.46715271e-02 ]
      - [ 0., 1.52206998e-02, 0., 0., 0., 0., 4.56620986e-03, 0.,
          9.13241971e-03, 3.34855393e-02, 1.52207003e-03, 0., 0., 0.,
          3.50076109e-02, 1.52207003e-03, 3.04413997e-02, 2.73972601e-02,
          0., 0., 0., 0., 2.89193299e-02, 2.28310507e-02, 3.04413997e-02,
          1.82648394e-02, 0., 9.13241971e-03, 9.13241971e-03, 0.,
          1.82648394e-02, 2.43531205e-02, 3.04413997e-02, 1.52206998e-02,
          0., 2.73972601e-02, 2.13089809e-02, 0., 1.52206998e-02,
          2.73972601e-02, 3.04413997e-02, 2.89193299e-02, 6.08828012e-03,
          3.80517505e-02, 3.50076109e-02, 3.04414006e-03, 2.89193299e-02,
          2.28310507e-02, 9.13241971e-03, 3.80517505e-02, 3.80517505e-02,
          3.65296789e-02, 3.80517505e-02, 3.80517505e-02, 3.80517505e-02,
          4.56620986e-03, 0., 1.67427696e-02, 3.04413997e-02,
          7.61034992e-03, 9.13241971e-03, 3.04413997e-02, 1.52206998e-02,
          0., 1.97869092e-02, 8.06697085e-02, 1.09589040e-01,
          1.09589040e-01, 1.36986300e-01, 1.93302885e-01, 2.40487054e-01,
          1.09589040e-01, 1.40030444e-01, 1.93302885e-01, 7.61035010e-02,
          1.18721455e-01, 1.12633184e-01, 7.15372935e-02, 1.84170470e-01,
          1.03500761e-01, 3.04414006e-03, 3.80517505e-02, 1.52206998e-02,
          4.56620986e-03, 4.26179580e-02, 3.80517505e-02, 3.95738184e-02,
          6.08827993e-02 ]
      - [ 0., 0., 0., 0., 0., 0., 0., 0., 0., 5.14138816e-03,
          5.14138816e-03, 0., 0., 0., 0., 0., 0., 2.05655526e-02,
          3.85604128e-02, 0., 0., 7.71208247e-03, 5.65552711e-02,
          2.57069408e-03, 0., 4.88431863e-02, 1.79948583e-02, 0.,
          1.02827763e-02, 0., 4.62724939e-02, 3.08483299e-02,
          1.28534706e-02, 6.42673522e-02, 2.57069408e-03, 2.82776356e-02,
          5.39845750e-02, 0., 2.82776356e-02, 3.85604128e-02,
          2.57069408e-03, 5.65552711e-02, 4.62724939e-02, 6.16966598e-02,
          6.42673522e-02, 4.88431863e-02, 5.91259636e-02, 1.79948583e-02,
          0., 1.28534706e-02, 2.57069413e-02, 2.05655526e-02,
          1.28534706e-02, 2.82776356e-02, 2.31362469e-02, 0., 0., 0., 0.,
          0., 0., 0., 0., 0., 0., 1.02827763e-02, 1.25964016e-01,
          1.54241651e-01, 2.28791773e-01, 3.57326478e-01, 1.23393320e-01,
          0., 1.54241649e-02, 2.08226219e-01, 1.36246786e-01,
          1.10539846e-01, 1.41388178e-01, 8.48329067e-02, 2.13367611e-01,
          8.99742916e-02, 5.14138816e-03, 5.14138816e-03, 0., 0.,
          5.14138816e-03, 5.14138816e-03, 1.02827763e-02, 0. ]
      - [ 0., 0., 0., 0., 0., 0., 1.91570877e-03, 0., 0., 2.29885057e-02,
          1.72413792e-02, 0., 0., 1.91570877e-03, 4.40613031e-02,
          7.66283507e-03, 1.91570877e-03, 4.59770113e-02, 1.91570874e-02,
          0., 1.91570877e-03, 0., 3.63984667e-02, 2.49042138e-02,
          9.57854372e-03, 4.78927195e-02, 0., 9.57854372e-03,
          3.25670503e-02, 0., 1.53256701e-02, 2.87356321e-02,
          9.57854372e-03, 4.78927195e-02, 0., 2.49042138e-02,
          4.40613031e-02, 5.74712642e-03, 2.49042138e-02, 2.68199239e-02,
          1.91570877e-03, 4.02298868e-02, 4.78927195e-02, 4.78927195e-02,
          4.78927195e-02, 4.78927195e-02, 4.78927195e-02, 1.14942528e-02,
          0., 1.34099619e-02, 4.21455950e-02, 2.49042138e-02,
          1.34099619e-02, 3.63984667e-02, 2.29885057e-02, 0., 0., 0., 0.,
          0., 0., 0., 0., 0., 1.91570877e-03, 9.38697308e-02,
          1.30268201e-01, 1.43678159e-01, 1.83908045e-01, 2.93103456e-01,
          1.53256699e-01, 0., 2.29885057e-02, 2.18390808e-01,
          1.26436785e-01, 1.07279688e-01, 1.39846742e-01, 9.19540226e-02,
          1.93486586e-01, 9.96168554e-02, 2.49042138e-02, 2.49042138e-02,
          0., 1.91570877e-03, 2.49042138e-02, 6.89655170e-02,
          4.21455950e-02, 5.36398478e-02 ]
      - [ 0., 0., 0., 0., 0., 0., 0., 0., 0., 0., 0., 0., 0., 0., 0., 0.,
          3.33333341e-03, 5.66666685e-02, 0., 0., 0., 2.66666673e-02,
          5.00000007e-02, 0., 3.66666652e-02, 4.33333330e-02, 0., 0., 0.,
          0., 5.33333346e-02, 1.66666675e-02, 5.00000007e-02,
          2.33333334e-02, 0., 3.33333351e-02, 9.99999978e-03, 0.,
          3.66666652e-02, 2.99999993e-02, 2.33333334e-02, 6.66666701e-02,
          5.99999987e-02, 7.33333305e-02, 7.00000003e-02, 2.33333334e-02,
          5.33333346e-02, 0., 0., 2.99999993e-02, 4.33333330e-02,
          3.33333341e-03, 2.33333334e-02, 5.00000007e-02, 9.99999978e-03,
          0., 0., 0., 0., 0., 0., 0., 0., 0., 0., 0., 1.36666670e-01,
          1.50000006e-01, 1.83333337e-01, 3.70000005e-01, 1.59999996e-01,
          0., 1.13333330e-01, 2.19999999e-01, 1.03333332e-01,
          1.09999999e-01, 1.03333332e-01, 1.00000001e-01, 2.03333333e-01,
          4.66666669e-02, 0., 0., 0., 0., 0., 0., 0., 0. ]
      - [ 0., 0., 0., 3.03490134e-03, 1.51745072e-02, 1.97268594e-02,
          1.51745067e-03, 0., 0., 1.36570558e-02, 3.03490143e-02,
          3.79362665e-02, 3.79362665e-02, 3.79362665e-02, 1.36570558e-02,
          0., 2.42792107e-02, 3.79362665e-02, 3.79362665e-02,
          3.79362665e-02, 3.79362665e-02, 3.79362665e-02, 1.51745072e-02,
          0., 2.88315639e-02, 3.64188179e-02, 2.12443098e-02,
          9.10470448e-03, 1.51745067e-03, 3.79362665e-02, 1.66919567e-02,
          0., 7.58725358e-03, 7.58725358e-03, 0., 0., 1.66919567e-02,
          3.79362665e-02, 3.03490143e-02, 1.51745067e-03, 0., 0., 0.,
          1.36570558e-02, 3.79362665e-02, 3.79362665e-02, 3.79362665e-02,
          2.42792107e-02, 0., 0., 0., 4.55235224e-03, 3.18664648e-02,
          3.79362665e-02, 3.79362665e-02, 1.82094090e-02, 0., 0., 0., 0.,
          0., 1.51745072e-02, 9.10470448e-03, 0., 3.94537188e-02,
          1.71471924e-01, 2.29135051e-01, 1.51745066e-01, 1.01669192e-01,
          1.51745066e-01, 1.30500764e-01, 2.42792107e-02, 6.06980287e-02,
          9.55993906e-02, 8.95295888e-02, 1.06221549e-01, 1.79059178e-01,
          2.62518972e-01, 1.62367225e-01, 4.40060720e-02, 5.00758737e-02,
          5.61456755e-02, 3.49013656e-02, 4.55235224e-03, 8.95295888e-02,
          8.19423348e-02, 6.52503818e-02, 1.45675257e-01 ]
      - [ 0., 0., 0., 0., 0., 0., 0., 0., 0., 0., 0., 0., 2.73224036e-03,
          2.45901644e-02, 2.73224036e-03, 0., 0., 0., 0., 5.46448072e-03,
          4.64480892e-02, 6.83060139e-02, 2.45901644e-02, 0., 0., 0.,
          1.09289614e-02, 6.01092912e-02, 3.82513665e-02, 4.37158458e-02,
          2.73224041e-02, 0., 0., 1.91256832e-02, 6.28415272e-02,
          3.55191268e-02, 0., 4.09836061e-02, 3.00546456e-02, 0., 0.,
          5.19125685e-02, 3.55191268e-02, 2.73224036e-03, 5.73770478e-02,
          6.83060139e-02, 6.83060139e-02, 3.27868834e-02, 0.,
          1.63934417e-02, 0., 0., 1.91256832e-02, 5.19125685e-02,
          3.82513665e-02, 1.09289614e-02, 2.73224036e-03, 0., 0., 0., 0.,
          0., 0., 0., 0., 3.00546456e-02, 1.44808754e-01, 1.80327863e-01,
          1.88524589e-01, 3.16939890e-01, 1.36612028e-01, 2.73224036e-03,
          2.73224036e-03, 8.74316916e-02, 1.09289616e-01, 1.03825137e-01,
          1.63934425e-01, 2.97814220e-01, 1.91256836e-01, 4.37158458e-02,
          0., 2.73224036e-03, 0., 0., 2.73224041e-02, 2.73224036e-03, 0.,
          3.00546456e-02 ]
      - [ 0., 0., 0., 0., 7.33137829e-03, 2.78592370e-02, 1.61290318e-02,
          0., 0., 0., 4.39882698e-03, 2.49266867e-02, 3.51906158e-02,
          3.66568901e-02, 2.93255132e-02, 0., 0., 1.31964814e-02,
          3.51906158e-02, 3.66568901e-02, 3.66568901e-02, 3.37243415e-02,
          2.93255132e-02, 0., 1.75953079e-02, 3.66568901e-02,
          3.66568901e-02, 2.05278601e-02, 4.39882698e-03, 1.02639301e-02,
          2.93255132e-02, 0., 2.93255132e-02, 3.51906158e-02,
          1.31964814e-02, 0., 8.79765395e-03, 2.49266867e-02,
          3.37243415e-02, 1.46627566e-03, 1.46627566e-02, 4.39882698e-03,
          0., 2.93255132e-03, 3.66568901e-02, 3.66568901e-02,
          3.66568901e-02, 2.05278601e-02, 0., 0., 0., 1.46627566e-03,
          3.22580636e-02, 3.66568901e-02, 3.66568901e-02, 2.34604105e-02,
          0., 0., 0., 0., 4.39882698e-03, 1.61290318e-02, 2.49266867e-02,
          2.93255132e-03, 5.13196476e-02, 1.30498528e-01, 1.84750736e-01,
          1.55425221e-01, 1.46627575e-01, 1.52492672e-01, 1.30498528e-01,
          4.83870953e-02, 6.15835786e-02, 8.94428119e-02, 8.94428119e-02,
          8.65102634e-02, 1.65689141e-01, 2.22873896e-01, 2.36070380e-01,
          4.83870991e-02, 3.22580636e-02, 5.13196476e-02, 3.51906158e-02,
          1.61290318e-02, 7.18475059e-02, 5.86510263e-02, 4.83870953e-02,
          1.33431077e-01 ]
      - [ 0., 0., 0., 0., 1.74418613e-02, 2.90697683e-02, 7.26744207e-03,
          0., 0., 0., 0., 2.03488376e-02, 3.63372080e-02, 3.63372080e-02,
          2.18023248e-02, 0., 0., 0., 2.61627901e-02, 3.63372080e-02,
          3.34302336e-02, 3.63372080e-02, 1.59883723e-02, 0.,
          1.45348837e-03, 2.90697683e-02, 3.63372080e-02, 2.61627901e-02,
          4.36046533e-03, 3.63372080e-02, 1.45348841e-02, 0.,
          2.03488376e-02, 3.63372080e-02, 2.76162792e-02, 1.45348837e-03,
          1.59883723e-02, 3.63372080e-02, 2.90697683e-02, 2.90697673e-03,
          2.76162792e-02, 2.76162792e-02, 2.90697673e-03, 1.45348841e-02,
          3.63372080e-02, 3.63372080e-02, 3.63372080e-02, 2.47093029e-02,
          8.72093067e-03, 1.45348837e-03, 0., 5.81395347e-03,
          2.47093029e-02, 3.63372080e-02, 3.48837227e-02, 1.45348841e-02,
          0., 0., 0., 0., 0., 2.18023248e-02, 1.01744188e-02, 0.,
          5.37790731e-02, 1.14825577e-01, 1.48255810e-01, 1.48255810e-01,
          1.70058131e-01, 2.06395343e-01, 1.26453489e-01, 3.19767445e-02,
          5.81395365e-02, 9.44767445e-02, 9.30232555e-02, 1.04651161e-01,
          1.68604657e-01, 2.68895328e-01, 1.70058146e-01, 4.21511643e-02,
          2.90697683e-02, 4.36046496e-02, 4.65116277e-02, 7.26744207e-03,
          7.26744160e-02, 4.21511605e-02, 3.63372117e-02, 1.32267445e-01 ]
      - [ 0., 0., 0., 0., 2.52525252e-03, 1.26262624e-02, 0., 0., 0., 0.,
          0., 1.26262624e-02, 4.54545468e-02, 6.31313100e-02,
          2.02020202e-02, 0., 0., 1.01010101e-02, 4.54545468e-02,
          6.31313100e-02, 3.78787890e-02, 5.55555560e-02, 2.52525248e-02,
          0., 3.28282826e-02, 6.31313100e-02, 4.29292917e-02,
          5.05050505e-03, 0., 2.77777780e-02, 5.05050505e-03, 0.,
          3.53535339e-02, 1.51515156e-02, 0., 1.01010101e-02,
          3.78787890e-02, 5.30303046e-02, 3.28282826e-02, 0., 0., 0., 0.,
          1.76767670e-02, 6.31313100e-02, 6.31313100e-02, 6.31313100e-02,
          1.01010101e-02, 0., 0., 0., 0., 0., 2.27272734e-02,
          5.05050505e-03, 0., 0., 0., 0., 0., 0., 0., 0., 0.,
          1.51515147e-02, 1.41414136e-01, 2.37373739e-01, 1.76767677e-01,
          1.84343442e-01, 2.17171714e-01, 2.77777780e-02, 0.,
          6.81818128e-02, 8.83838385e-02, 8.83838385e-02, 1.08585857e-01,
          1.86868683e-01, 2.97979802e-01, 1.51515141e-01, 1.01010101e-02,
          1.26262624e-02, 4.54545468e-02, 1.51515147e-02, 0.,
          1.08585857e-01, 3.28282826e-02, 1.26262624e-02, 1.43939391e-01 ]
      - [ 0., 0., 0., 0., 0., 0., 0., 0., 0., 0., 0., 1.19617227e-02,
          3.58851664e-02, 1.91387553e-02, 0., 0., 2.39234441e-03,
          2.63157897e-02, 4.30622026e-02, 5.98086119e-02, 5.98086119e-02,
          3.58851664e-02, 0., 0., 3.82775106e-02, 5.98086119e-02,
          5.02392352e-02, 2.87081338e-02, 2.87081338e-02, 3.58851664e-02,
          0., 0., 1.67464111e-02, 1.67464111e-02, 2.39234441e-03, 0.,
          1.91387553e-02, 4.06698547e-02, 0., 0., 0., 0., 0.,
          3.82775106e-02, 5.98086119e-02, 5.98086119e-02, 4.78468910e-02,
          0., 0., 0., 0., 1.67464111e-02, 4.30622026e-02, 5.74162677e-02,
          3.34928222e-02, 0., 0., 0., 0., 0., 0., 1.19617227e-02, 0., 0.,
          0., 6.69856444e-02, 2.27272734e-01, 2.41626799e-01,
          9.56937745e-02, 2.05741629e-01, 1.50717705e-01, 1.19617227e-02,
          5.74162677e-02, 1.02870815e-01, 9.56937820e-02, 1.55502394e-01,
          2.46411487e-01, 2.60765553e-01, 8.13397169e-02, 0., 0.,
          3.58851664e-02, 0., 0., 5.50239235e-02, 1.19617227e-02, 0.,
          6.69856444e-02 ]
      - [ 0., 0., 0., 0., 3.07219662e-03, 2.61136722e-02, 2.45775729e-02,
          0., 0., 0., 0., 1.07526882e-02, 3.37941647e-02, 3.84024568e-02,
          3.84024568e-02, 0., 0., 3.07219662e-03, 2.61136722e-02,
          3.84024568e-02, 3.68663594e-02, 3.22580636e-02, 3.84024568e-02,
          0., 1.22887865e-02, 3.84024568e-02, 3.84024568e-02,
          3.07219662e-02, 6.14439324e-03, 7.68049154e-03, 3.84024568e-02,
          0., 3.07219662e-02, 3.68663594e-02, 1.68970823e-02, 0.,
          4.60829493e-03, 2.15053763e-02, 3.84024568e-02, 1.07526882e-02,
          1.99692789e-02, 7.68049154e-03, 0., 0., 3.53302620e-02,
          3.84024568e-02, 3.84024568e-02, 2.91858688e-02, 0., 0., 0., 0.,
          2.30414756e-02, 3.53302620e-02, 3.84024568e-02, 2.45775729e-02,
          0., 0., 0., 0., 0., 6.14439324e-03, 2.15053763e-02, 0.,
          5.37634417e-02, 1.21351764e-01, 1.75115198e-01, 1.72043011e-01,
          1.59754217e-01, 1.68970808e-01, 1.21351764e-01, 2.76497696e-02,
          6.29800335e-02, 8.60215053e-02, 8.14132094e-02, 7.98771083e-02,
          1.42857149e-01, 2.05837175e-01, 2.76497692e-01, 6.45161271e-02,
          2.61136722e-02, 5.83717376e-02, 2.91858688e-02, 2.45775729e-02,
          7.21966177e-02, 4.91551459e-02, 5.06912470e-02, 1.24423966e-01 ]
      - [ 0., 0., 0., 0., 1.98019799e-02, 2.97029708e-02, 3.96039616e-03,
          0., 0., 0., 0., 1.98019799e-02, 4.95049506e-02, 4.95049506e-02,
          1.98019799e-02, 0., 0., 1.98019808e-03, 3.36633660e-02,
          4.95049506e-02, 1.58415847e-02, 3.76237631e-02, 1.98019799e-02,
          0., 1.98019808e-03, 3.16831693e-02, 4.75247540e-02,
          1.38613861e-02, 0., 2.97029708e-02, 2.17821784e-02, 0.,
          2.57425737e-02, 4.75247540e-02, 1.58415847e-02, 0.,
          2.77227722e-02, 4.55445535e-02, 4.95049506e-02, 2.17821784e-02,
          2.57425737e-02, 1.78217813e-02, 0., 1.98019808e-03,
          4.75247540e-02, 4.95049506e-02, 4.95049506e-02, 2.77227722e-02,
          0., 0., 0., 0., 0., 2.57425737e-02, 2.37623770e-02, 0., 0., 0.,
          0., 0., 0., 0., 0., 0., 5.34653477e-02, 1.38613865e-01,
          1.58415839e-01, 1.46534652e-01, 2.33663365e-01, 2.19801977e-01,
          4.95049506e-02, 0., 5.34653440e-02, 9.90099013e-02,
          9.70297009e-02, 8.51485133e-02, 1.60396039e-01, 2.67326742e-01,
          1.88118815e-01, 4.95049506e-02, 2.97029708e-02, 5.34653477e-02,
          4.95049506e-02, 3.96039616e-03, 9.90099013e-02, 3.96039598e-02,
          3.36633660e-02, 1.58415839e-01 ]
      - [ 0., 0., 0., 0., 0., 0., 0., 0., 3.93700786e-03, 1.96850393e-02,
          1.96850393e-02, 1.96850393e-02, 1.77165363e-02, 0.,
          7.87401572e-03, 0., 1.96850393e-02, 4.52755913e-02,
          3.93700786e-02, 4.92125973e-02, 3.54330726e-02, 5.90551179e-03,
          4.72440943e-02, 5.90551179e-03, 1.96850393e-02, 1.96850393e-02,
          0., 3.93700786e-02, 1.57480314e-02, 0., 3.54330726e-02,
          2.16535442e-02, 1.96850393e-02, 1.96850393e-02, 0.,
          3.93700786e-02, 0., 0., 2.95275599e-02, 2.95275599e-02,
          1.96850393e-02, 1.96850393e-02, 0., 3.93700786e-02,
          1.57480314e-02, 0., 3.74015756e-02, 1.77165363e-02,
          1.57480314e-02, 1.57480314e-02, 0., 1.57480314e-02,
          4.92125973e-02, 4.33070883e-02, 4.52755913e-02, 1.96850393e-03,
          0., 0., 0., 0., 1.37795275e-02, 1.96850393e-02, 3.93700786e-03,
          0., 0., 8.85826796e-02, 2.48031497e-01, 1.51574805e-01,
          1.37795269e-01, 1.49606302e-01, 1.87007874e-01, 3.74015756e-02,
          9.84251946e-02, 1.39763772e-01, 5.90551198e-02, 2.02755898e-01,
          1.47637799e-01, 6.88976422e-02, 2.06692919e-01, 7.67716542e-02,
          1.96850393e-02, 3.74015756e-02, 0., 0., 4.13385853e-02,
          4.72440943e-02, 3.93700786e-02, 4.92125973e-02 ]
      - [ 0., 0., 0., 0., 0., 0., 0., 0., 4.58715577e-03, 4.58715595e-02,
          3.44036706e-02, 3.44036706e-02, 6.88073412e-03, 2.29357788e-03,
          1.37614682e-02, 0., 1.14678899e-02, 5.04587144e-02,
          3.44036706e-02, 5.73394485e-02, 1.83486231e-02, 6.88073412e-03,
          4.58715595e-02, 0., 1.14678899e-02, 3.44036706e-02, 0.,
          4.58715595e-02, 0., 0., 4.35779803e-02, 4.58715577e-03,
          1.14678899e-02, 3.44036706e-02, 0., 5.73394485e-02, 0., 0.,
          3.66972461e-02, 1.14678899e-02, 1.14678899e-02, 3.44036706e-02,
          0., 3.89908254e-02, 2.29357798e-02, 9.17431153e-03,
          4.35779803e-02, 2.29357788e-03, 2.29357788e-03, 1.14678899e-02,
          0., 1.14678899e-02, 5.50458729e-02, 5.04587144e-02,
          2.75229365e-02, 0., 0., 0., 0., 0., 9.17431153e-03,
          1.14678899e-02, 0., 0., 0., 1.42201841e-01, 2.24770635e-01,
          1.39908254e-01, 1.51376143e-01, 1.62844032e-01, 1.58256888e-01,
          2.06422023e-02, 5.27522936e-02, 2.11009175e-01, 6.88073412e-02,
          2.45412841e-01, 1.12385318e-01, 8.02752301e-02, 2.11009175e-01,
          1.83486231e-02, 3.44036706e-02, 5.27522936e-02, 0., 0.,
          5.96330278e-02, 8.25688094e-02, 8.02752301e-02, 6.19266070e-02 ]
      - [ 8.19672085e-03, 1.36612020e-02, 2.32240446e-02, 2.73224041e-02,
          1.63934417e-02, 0., 4.09836043e-03, 0., 2.59562843e-02,
          3.41530070e-02, 3.41530070e-02, 3.41530070e-02, 2.59562843e-02,
          0., 3.41530070e-02, 8.19672085e-03, 2.73224041e-02,
          1.09289614e-02, 4.09836043e-03, 3.41530070e-02, 1.50273228e-02,
          0., 2.59562843e-02, 2.18579229e-02, 2.73224041e-02,
          6.83060102e-03, 0., 3.41530070e-02, 6.83060102e-03, 0.,
          1.36612020e-02, 2.73224041e-02, 2.73224041e-02, 6.83060102e-03,
          0., 3.41530070e-02, 9.56284162e-03, 0., 1.50273228e-02,
          2.73224041e-02, 2.73224041e-02, 6.83060102e-03, 0.,
          3.14207636e-02, 2.18579229e-02, 6.83060102e-03, 3.00546456e-02,
          1.91256832e-02, 1.91256832e-02, 2.73224036e-03, 0.,
          1.77595634e-02, 3.41530070e-02, 3.41530070e-02, 3.27868834e-02,
          2.73224036e-03, 0., 0., 0., 1.36612018e-03, 1.63934417e-02,
          2.18579229e-02, 8.19672085e-03, 0., 9.28961709e-02,
          1.96721315e-01, 1.39344260e-01, 1.16120219e-01, 1.20218582e-01,
          1.43442616e-01, 1.43442631e-01, 4.78142053e-02, 1.62568301e-01,
          8.19672123e-02, 6.14754111e-02, 2.14480877e-01, 1.46174863e-01,
          6.28415346e-02, 1.63934425e-01, 1.06557377e-01, 5.05464487e-02,
          9.15300548e-02, 3.82513627e-02, 5.46448082e-02, 8.60655755e-02,
          1.10655740e-01, 7.24043772e-02, 2.17213124e-01 ]
      - [ 0., 0., 0., 0., 0., 0., 0., 0., 0., 0., 0., 0., 0., 0., 0., 0.,
          1.06382975e-02, 5.58510646e-02, 3.98936160e-02, 4.78723422e-02,
          1.32978726e-02, 5.31914877e-03, 1.32978726e-02, 0.,
          2.65957452e-02, 4.78723422e-02, 1.86170209e-02, 6.64893612e-02,
          1.59574468e-02, 1.06382975e-02, 5.58510646e-02, 0.,
          2.65957452e-02, 3.98936160e-02, 0., 4.52127643e-02, 0., 0.,
          5.31914905e-02, 0., 2.65957452e-02, 3.98936160e-02, 0.,
          4.78723422e-02, 7.97872338e-03, 5.31914877e-03, 5.58510646e-02,
          0., 7.97872338e-03, 1.59574468e-02, 0., 2.39361711e-02,
          5.85106388e-02, 5.85106388e-02, 3.45744677e-02, 0., 0., 0., 0.,
          0., 7.97872338e-03, 1.59574468e-02, 0., 0., 0., 0.,
          1.86170220e-01, 2.42021278e-01, 1.64893612e-01, 1.83510646e-01,
          1.99468091e-01, 2.39361711e-02, 9.84042585e-02, 1.99468091e-01,
          5.85106388e-02, 2.31382981e-01, 1.03723407e-01, 9.57446843e-02,
          2.12765962e-01, 0., 0., 0., 0., 0., 0., 0., 0., 0. ]
      - [ 0., 0., 0., 0., 0., 0., 0., 0., 0., 0., 0., 0., 0., 0.,
          4.61893762e-03, 0., 6.92840666e-03, 5.54272532e-02,
          5.77367209e-02, 5.77367209e-02, 3.00230943e-02, 1.15473438e-02,
          5.08083142e-02, 4.61893762e-03, 1.15473438e-02, 5.31177819e-02,
          1.84757505e-02, 5.31177819e-02, 9.23787523e-03, 0.,
          4.15704399e-02, 2.30946876e-02, 1.15473438e-02, 4.61893752e-02,
          0., 5.31177819e-02, 4.61893762e-03, 0., 3.69515009e-02,
          2.77136266e-02, 1.15473438e-02, 4.61893752e-02, 0.,
          3.46420333e-02, 5.08083142e-02, 4.84988466e-02, 5.08083142e-02,
          4.61893762e-03, 4.61893762e-03, 2.30946876e-02, 0.,
          2.30946881e-03, 2.30946876e-02, 2.30946876e-02, 6.92840666e-03,
          0., 0., 0., 0., 0., 0., 0., 0., 0., 0., 4.61893762e-03,
          2.74826795e-01, 2.10161656e-01, 1.80138573e-01, 2.47113168e-01,
          8.31408724e-02, 0., 4.61893752e-02, 2.24018469e-01,
          7.62124732e-02, 2.00923786e-01, 1.17782906e-01, 8.31408799e-02,
          1.91685915e-01, 6.00461885e-02, 0., 0., 0., 0., 0.,
          4.61893762e-03, 0., 4.61893762e-03 ]
      - [ 6.28930796e-03, 1.25786159e-02, 1.63522009e-02, 2.51572318e-02,
          5.03144646e-03, 1.25786162e-03, 1.25786159e-02, 0.,
          2.38993708e-02, 3.14465426e-02, 3.14465426e-02, 3.14465426e-02,
          1.25786159e-02, 6.28930796e-03, 3.14465426e-02, 6.28930796e-03,
          2.51572318e-02, 3.14465426e-02, 3.14465426e-02, 3.14465426e-02,
          8.80503189e-03, 1.25786162e-03, 2.76729558e-02, 1.76100638e-02,
          2.51572318e-02, 1.13207549e-02, 1.76100638e-02, 2.51572318e-02,
          0., 0., 1.88679248e-02, 2.38993708e-02, 2.51572318e-02,
          6.28930796e-03, 1.25786159e-02, 3.01886797e-02, 0., 0.,
          2.13836469e-02, 2.01257858e-02, 2.51572318e-02, 6.28930796e-03,
          5.03144646e-03, 3.14465426e-02, 2.51572318e-02, 2.13836469e-02,
          3.14465426e-02, 1.25786159e-02, 2.51572318e-02, 5.03144646e-03,
          0., 2.01257858e-02, 3.14465426e-02, 3.14465426e-02,
          2.51572318e-02, 0., 1.00628929e-02, 0., 0., 0., 1.13207549e-02,
          1.25786159e-02, 2.51572323e-03, 0., 7.92452842e-02,
          1.74842775e-01, 1.74842775e-01, 1.22012578e-01, 1.15723267e-01,
          1.58490568e-01, 1.38364777e-01, 3.64779867e-02, 1.66037738e-01,
          1.04402520e-01, 1.14465415e-01, 1.94968551e-01, 9.43396240e-02,
          7.42138401e-02, 1.71069190e-01, 8.05031434e-02, 4.52830195e-02,
          8.17610025e-02, 2.51572318e-02, 5.40880486e-02, 7.42138401e-02,
          1.00628935e-01, 7.67295659e-02, 1.77358493e-01 ]
      - [ 0., 0., 0., 0., 0., 0., 0., 0., 0., 0., 0., 0., 0., 0., 0., 0.,
          1.25313280e-02, 6.26566410e-02, 5.01253121e-02, 5.01253121e-02,
          2.25563906e-02, 2.50626565e-03, 1.00250626e-02, 0.,
          1.25313280e-02, 4.76190485e-02, 1.25313280e-02, 5.26315793e-02,
          2.50626560e-02, 1.00250626e-02, 5.26315793e-02, 0.,
          1.25313280e-02, 3.75939831e-02, 0., 4.76190485e-02, 0., 0.,
          5.26315793e-02, 0., 1.75438598e-02, 3.75939831e-02, 0.,
          5.01253121e-02, 2.50626565e-03, 0., 5.01253121e-02, 0.,
          1.50375944e-02, 3.00751887e-02, 0., 3.00751887e-02,
          5.26315793e-02, 4.01002504e-02, 5.01253121e-02, 0., 0., 0., 0.,
          0., 2.25563906e-02, 2.50626560e-02, 2.50626565e-03, 0., 0., 0.,
          2.10526317e-01, 2.13032588e-01, 1.50375932e-01, 1.57894731e-01,
          2.18045115e-01, 5.01253121e-02, 7.01754391e-02, 2.15538844e-01,
          6.26566410e-02, 2.30576441e-01, 1.25313282e-01, 7.76942372e-02,
          2.18045115e-01, 0., 0., 0., 0., 0., 0., 0., 0., 0. ]
      - [ 0., 8.29875562e-03, 0., 1.03734443e-02, 0., 0., 4.14937781e-03,
          0., 6.22406648e-03, 5.18672206e-02, 5.18672206e-02,
          5.18672206e-02, 1.03734443e-02, 8.29875562e-03, 4.56431545e-02,
          0., 1.03734443e-02, 4.77178432e-02, 1.65975112e-02,
          5.18672206e-02, 8.29875562e-03, 0., 4.97925319e-02,
          8.29875562e-03, 1.03734443e-02, 3.11203320e-02, 0.,
          5.18672206e-02, 0., 0., 4.14937772e-02, 1.03734443e-02,
          1.03734443e-02, 3.11203320e-02, 0., 5.18672206e-02,
          1.65975112e-02, 4.14937781e-03, 4.97925319e-02, 1.03734443e-02,
          4.14937781e-03, 1.65975112e-02, 0., 2.69709546e-02,
          5.18672206e-02, 5.18672206e-02, 4.56431545e-02, 0., 0., 0., 0.,
          0., 1.86721999e-02, 2.07468886e-02, 2.07468891e-03, 0., 0., 0.,
          0., 0., 0., 0., 0., 0., 2.28215773e-02, 2.26141080e-01,
          1.92946061e-01, 1.45228222e-01, 1.74273863e-01, 1.97095439e-01,
          4.14937772e-02, 0., 4.14937772e-02, 1.86721995e-01,
          6.84647337e-02, 2.44813278e-01, 1.05809130e-01, 8.50622430e-02,
          2.38589212e-01, 2.90456451e-02, 5.18672206e-02, 7.67634884e-02,
          8.29875562e-03, 1.45228226e-02, 7.67634884e-02, 1.49377599e-01,
          1.07883818e-01, 1.41078845e-01 ]
      - [ 0., 0., 0., 0., 0., 0., 0., 0., 1.29390014e-02, 4.62107211e-02,
          3.88170071e-02, 4.62107211e-02, 1.29390014e-02, 5.54528646e-03,
          2.95748618e-02, 0., 1.84842888e-02, 4.06654328e-02,
          3.14232893e-02, 4.62107211e-02, 5.54528646e-03, 3.69685772e-03,
          4.62107211e-02, 5.54528646e-03, 1.84842888e-02, 1.84842888e-02,
          0., 4.06654328e-02, 0., 0., 3.14232893e-02, 9.24214441e-03,
          1.84842888e-02, 2.40295753e-02, 0., 3.69685777e-02, 0., 0.,
          2.77264323e-02, 9.24214441e-03, 1.84842888e-02, 2.77264323e-02,
          0., 4.25138623e-02, 1.29390014e-02, 1.84842888e-02,
          4.43622917e-02, 5.54528646e-03, 9.24214441e-03, 1.47874309e-02,
          0., 2.58780029e-02, 4.62107211e-02, 4.62107211e-02,
          3.69685777e-02, 0., 0., 0., 0., 1.84842886e-03, 9.24214441e-03,
          9.24214441e-03, 5.54528646e-03, 0., 0., 1.92236602e-01,
          1.97781891e-01, 1.18299447e-01, 1.16451018e-01, 1.70055449e-01,
          1.79297596e-01, 2.58780047e-02, 9.61183012e-02, 1.71903878e-01,
          7.02402964e-02, 2.40295753e-01, 8.68761539e-02, 8.31792951e-02,
          2.21811458e-01, 2.95748618e-02, 3.88170071e-02, 5.91497235e-02,
          0., 0., 7.76340067e-02, 1.14602588e-01, 8.50277245e-02,
          1.07208870e-01 ]
      - [ 0., 0., 0., 0., 0., 0., 0., 0., 1.04166670e-02, 4.16666679e-02,
          4.16666679e-02, 4.16666679e-02, 6.25000009e-03, 1.45833334e-02,
          2.29166672e-02, 0., 2.08333340e-02, 5.00000007e-02,
          4.37499993e-02, 5.20833321e-02, 6.25000009e-03, 1.04166670e-02,
          4.58333343e-02, 0., 2.08333340e-02, 2.50000004e-02, 0.,
          4.58333343e-02, 0., 0., 4.16666679e-02, 0., 2.08333340e-02,
          2.08333340e-02, 0., 4.16666679e-02, 0., 0., 4.16666679e-02, 0.,
          2.08333340e-02, 2.08333340e-02, 0., 4.79166657e-02,
          2.08333340e-02, 2.29166672e-02, 4.79166657e-02, 0.,
          6.25000009e-03, 1.04166670e-02, 0., 2.50000004e-02,
          4.58333343e-02, 4.16666679e-02, 2.29166672e-02, 0., 0., 0., 0.,
          0., 0., 0., 0., 0., 0., 1.79166675e-01, 2.29166672e-01,
          1.33333340e-01, 1.25000000e-01, 1.81250006e-01, 1.52083337e-01,
          0., 1.00000001e-01, 1.68750003e-01, 8.54166672e-02,
          2.54166663e-01, 7.91666657e-02, 8.95833373e-02, 2.22916663e-01,
          0., 4.16666679e-02, 4.79166694e-02, 0., 0., 7.29166716e-02,
          1.06250003e-01, 8.33333358e-02, 9.58333388e-02 ]
      - [ 0., 0., 0., 0., 0., 0., 0., 0., 0., 2.20994484e-02,
          4.60405163e-02, 4.60405163e-02, 4.60405163e-02, 4.60405163e-02,
          2.02578269e-02, 0., 7.36648263e-03, 4.41988967e-02,
          1.10497242e-02, 4.23572734e-02, 2.02578269e-02, 1.65745858e-02,
          4.23572734e-02, 1.84162066e-03, 1.84162054e-02, 2.76243091e-02,
          0., 3.49907912e-02, 0., 0., 2.94659305e-02, 9.20810271e-03,
          1.84162054e-02, 2.20994484e-02, 0., 3.86740342e-02, 0., 0.,
          2.76243091e-02, 9.20810271e-03, 1.28913447e-02, 3.68324108e-02,
          0., 3.68324108e-02, 1.47329653e-02, 5.52486209e-03,
          4.05156538e-02, 3.68324132e-03, 1.84162066e-03, 4.05156538e-02,
          3.68324132e-03, 1.47329653e-02, 4.41988967e-02, 4.60405163e-02,
          2.39410680e-02, 0., 0., 1.84162066e-03, 0., 0., 9.20810271e-03,
          1.47329653e-02, 0., 0., 0., 2.26519346e-01, 1.86003685e-01,
          1.19705342e-01, 1.16022103e-01, 1.51012883e-01, 1.74953967e-01,
          2.57826895e-02, 5.89318573e-02, 1.95211783e-01, 6.07734807e-02,
          2.13627994e-01, 1.34438306e-01, 1.28913447e-01, 1.84162065e-01,
          2.39410680e-02, 4.60405163e-02, 6.81399629e-02, 0., 0.,
          1.14180483e-01, 1.12338856e-01, 6.81399629e-02, 1.58379376e-01 ]
      - [ 0., 2.17391294e-03, 1.30434781e-02, 1.63043477e-02,
          1.63043477e-02, 2.06521731e-02, 1.95652172e-02, 2.17391294e-03,
          2.17391294e-03, 2.39130426e-02, 2.71739122e-02, 2.71739122e-02,
          2.71739122e-02, 2.71739122e-02, 2.71739122e-02, 1.63043477e-02,
          1.41304350e-02, 2.71739122e-02, 2.50000004e-02, 2.71739122e-02,
          1.63043477e-02, 5.43478271e-03, 2.39130426e-02, 2.39130426e-02,
          2.17391308e-02, 1.73913036e-02, 5.43478271e-03, 2.50000004e-02,
          0., 0., 1.63043477e-02, 2.60869563e-02, 2.39130426e-02,
          1.63043477e-02, 5.43478271e-03, 2.60869563e-02, 2.17391294e-03,
          4.34782589e-03, 2.28260867e-02, 1.95652172e-02, 2.17391308e-02,
          2.17391308e-02, 2.17391294e-03, 2.71739122e-02, 2.71739122e-02,
          2.71739122e-02, 2.71739122e-02, 1.19565213e-02, 1.73913036e-02,
          2.71739122e-02, 0., 1.84782613e-02, 2.71739122e-02,
          2.71739122e-02, 1.84782613e-02, 1.08695647e-03, 4.34782589e-03,
          1.73913036e-02, 0., 1.08695647e-03, 7.60869542e-03,
          2.17391294e-03, 0., 0., 9.02173892e-02, 1.78260863e-01,
          1.63043469e-01, 1.11956522e-01, 1.20652169e-01, 1.66304350e-01,
          1.36956513e-01, 3.26086953e-02, 1.05434783e-01, 1.53260872e-01,
          7.82608688e-02, 1.68478265e-01, 1.23913042e-01, 1.14130430e-01,
          1.55434787e-01, 1.01086952e-01, 6.41304329e-02, 8.69565159e-02,
          3.91304344e-02, 5.10869548e-02, 8.04347768e-02, 9.78260860e-02,
          9.13043469e-02, 1.77173913e-01 ]
      - [ 0., 1.07758620e-03, 9.69827548e-03, 1.61637925e-02,
          1.72413792e-02, 2.15517245e-02, 1.83189660e-02, 2.15517241e-03,
          2.15517241e-03, 2.26293094e-02, 2.69396547e-02, 2.69396547e-02,
          2.69396547e-02, 2.69396547e-02, 2.69396547e-02, 1.72413792e-02,
          1.29310349e-02, 2.69396547e-02, 2.69396547e-02, 2.69396547e-02,
          1.40086208e-02, 5.38793113e-03, 2.37068962e-02, 2.47844830e-02,
          2.04741377e-02, 1.40086208e-02, 5.38793113e-03, 2.69396547e-02,
          0., 0., 1.72413792e-02, 2.47844830e-02, 2.69396547e-02,
          1.07758623e-02, 5.38793113e-03, 2.69396547e-02, 3.23275873e-03,
          1.07758620e-03, 2.37068962e-02, 2.04741377e-02, 2.69396547e-02,
          2.04741377e-02, 3.23275873e-03, 2.69396547e-02, 2.69396547e-02,
          2.69396547e-02, 2.69396547e-02, 1.18534481e-02, 1.93965510e-02,
          2.58620698e-02, 0., 2.15517245e-02, 2.69396547e-02,
          2.69396547e-02, 1.72413792e-02, 1.07758620e-03, 7.54310330e-03,
          1.61637925e-02, 0., 2.15517241e-03, 9.69827548e-03,
          3.23275873e-03, 0., 0., 8.62068981e-02, 1.76724136e-01,
          1.61637932e-01, 1.08836204e-01, 1.18534483e-01, 1.70258611e-01,
          1.39008626e-01, 3.87931019e-02, 1.16379306e-01, 1.37931034e-01,
          7.75862038e-02, 1.74568966e-01, 1.25000000e-01, 1.12068966e-01,
          1.54094830e-01, 1.02370687e-01, 6.57327622e-02, 8.40517208e-02,
          3.98706906e-02, 4.63362075e-02, 7.86637887e-02, 9.80603397e-02,
          8.94396529e-02, 1.73491374e-01 ]
      - [ 0., 5.18134702e-03, 1.55440411e-02, 1.55440411e-02,
          2.07253881e-02, 2.07253881e-02, 1.86528489e-02, 4.14507790e-03,
          4.14507790e-03, 2.48704664e-02, 2.59067360e-02, 2.59067360e-02,
          2.59067360e-02, 2.59067360e-02, 2.59067360e-02, 1.86528489e-02,
          1.65803116e-02, 2.59067360e-02, 2.27979273e-02, 2.59067360e-02,
          1.76165812e-02, 5.18134702e-03, 2.17616577e-02, 2.59067360e-02,
          2.27979273e-02, 1.34715028e-02, 5.18134702e-03, 2.59067360e-02,
          1.03626947e-03, 0., 1.55440411e-02, 2.59067360e-02,
          2.59067360e-02, 1.24352332e-02, 5.18134702e-03, 2.59067360e-02,
          4.14507790e-03, 1.03626947e-03, 1.96891185e-02, 2.17616577e-02,
          2.48704664e-02, 2.07253881e-02, 3.10880831e-03, 2.59067360e-02,
          2.59067360e-02, 2.59067360e-02, 2.59067360e-02, 1.34715028e-02,
          1.76165812e-02, 2.59067360e-02, 0., 1.86528489e-02,
          2.59067360e-02, 2.59067360e-02, 2.07253881e-02, 1.03626947e-03,
          4.14507790e-03, 1.65803116e-02, 0., 1.03626947e-03,
          7.25388620e-03, 4.14507790e-03, 0., 0., 1.00518130e-01,
          1.77202076e-01, 1.61658034e-01, 1.09844558e-01, 1.16062179e-01,
          1.65803105e-01, 1.35751292e-01, 3.31606232e-02, 1.16062179e-01,
          1.45077720e-01, 7.77202100e-02, 1.64766833e-01, 1.28497407e-01,
          1.08808294e-01, 1.48186520e-01, 1.10880829e-01, 6.52849749e-02,
          8.49740952e-02, 4.66321222e-02, 5.38860075e-02, 8.08290169e-02,
          9.63730589e-02, 9.01554376e-02, 1.87564760e-01 ]
      - [ 0., 0., 0., 0., 0., 0., 0., 0., 0., 0., 8.02568253e-03,
          1.60513651e-02, 2.40770467e-02, 2.08667740e-02, 9.63081885e-03,
          0., 0., 1.44462278e-02, 4.01284099e-02, 2.24719103e-02,
          3.04975919e-02, 4.01284099e-02, 3.85232754e-02, 6.42054575e-03,
          1.60513644e-03, 3.85232754e-02, 2.72873193e-02, 1.28410915e-02,
          2.40770467e-02, 1.60513651e-02, 3.37078646e-02, 2.24719103e-02,
          9.63081885e-03, 3.21027301e-02, 0., 3.21027301e-02,
          9.63081885e-03, 0., 2.56821830e-02, 2.40770467e-02,
          9.63081885e-03, 4.01284099e-02, 8.02568253e-03, 3.21027301e-02,
          3.37078646e-02, 2.40770467e-02, 3.85232754e-02, 1.44462278e-02,
          1.60513644e-03, 3.69181372e-02, 1.60513651e-02, 1.76565014e-02,
          4.01284099e-02, 4.01284099e-02, 3.53130028e-02, 1.60513644e-03,
          0., 8.02568253e-03, 4.81540943e-03, 0., 8.02568253e-03,
          8.02568253e-03, 0., 0., 0., 7.86516890e-02, 1.92616373e-01,
          1.76565006e-01, 1.33226335e-01, 2.00642049e-01, 1.89406097e-01,
          2.88924575e-02, 2.24719103e-02, 1.70144469e-01, 1.04333870e-01,
          1.33226335e-01, 1.70144469e-01, 1.49277687e-01, 1.81380421e-01,
          6.90208673e-02, 8.02568253e-03, 2.40770467e-02, 0., 0.,
          4.49438207e-02, 3.37078646e-02, 8.02568253e-03, 7.06260055e-02 ]
      - [ 0., 2.10748147e-03, 1.26448898e-02, 2.00210754e-02,
          2.10748147e-02, 2.10748147e-02, 1.26448898e-02, 0.,
          2.10748147e-03, 2.31822971e-02, 2.63435189e-02, 2.63435189e-02,
          2.63435189e-02, 2.63435189e-02, 2.63435189e-02, 8.42992589e-03,
          1.26448898e-02, 2.63435189e-02, 2.63435189e-02, 2.63435189e-02,
          2.31822971e-02, 1.68598518e-02, 2.52897795e-02, 1.89673342e-02,
          2.00210754e-02, 1.89673342e-02, 9.48366709e-03, 2.63435189e-02,
          6.32244488e-03, 0., 1.47523712e-02, 2.10748147e-02,
          2.10748147e-02, 1.68598518e-02, 0., 2.63435189e-02,
          8.42992589e-03, 1.05374074e-03, 1.89673342e-02, 2.10748147e-02,
          1.89673342e-02, 2.31822971e-02, 0., 2.63435189e-02,
          2.63435189e-02, 2.63435189e-02, 2.63435189e-02, 1.26448898e-02,
          1.15911486e-02, 2.63435189e-02, 0., 1.68598518e-02,
          2.63435189e-02, 2.63435189e-02, 2.42360383e-02, 1.05374074e-03,
          1.05374074e-03, 1.47523712e-02, 0., 1.05374074e-03,
          1.26448898e-02, 1.36986300e-02, 2.10748147e-03, 0.,
          8.95679668e-02, 1.65437296e-01, 1.75974712e-01, 1.16965227e-01,
          1.13803998e-01, 1.60168603e-01, 1.32771343e-01, 4.53108549e-02,
          8.74604881e-02, 1.51738673e-01, 7.48155937e-02, 1.69652268e-01,
          1.50684923e-01, 1.31717592e-01, 1.50684938e-01, 8.32455233e-02,
          5.58482595e-02, 8.21917802e-02, 4.42571118e-02, 4.53108549e-02,
          7.79768154e-02, 8.74604806e-02, 8.32455233e-02, 1.71759740e-01 ]
      - [ 0., 0., 0., 5.30035328e-03, 8.83392245e-03, 8.83392245e-03, 0.,
          0., 0., 3.35689038e-02, 4.41696122e-02, 4.41696122e-02,
          4.41696122e-02, 4.41696122e-02, 3.35689038e-02, 0.,
          8.83392245e-03, 3.88692580e-02, 1.76678449e-02, 4.24028262e-02,
          3.18021215e-02, 1.76678449e-02, 3.88692580e-02, 8.83392245e-03,
          1.76678449e-02, 2.29681972e-02, 0., 3.53356898e-02,
          1.76678447e-03, 0., 2.65017673e-02, 1.76678449e-02,
          1.76678449e-02, 3.00353356e-02, 1.76678447e-03, 3.00353356e-02,
          1.76678449e-02, 8.83392245e-03, 3.53356898e-02, 7.06713786e-03,
          3.53356893e-03, 4.41696122e-02, 1.59010608e-02, 2.12014131e-02,
          4.41696122e-02, 4.41696122e-02, 3.35689038e-02, 0., 0.,
          1.41342757e-02, 8.83392245e-03, 0., 1.23674916e-02,
          1.41342757e-02, 1.76678447e-03, 0., 0., 0., 0., 0., 0., 0., 0.,
          0., 2.29681991e-02, 2.43816257e-01, 2.04946995e-01,
          1.21908128e-01, 1.48409888e-01, 2.06713781e-01, 5.12367487e-02,
          0., 4.77031805e-02, 1.83745578e-01, 8.83392245e-02,
          1.78445235e-01, 1.60777390e-01, 1.37809187e-01, 1.69611305e-01,
          3.35689038e-02, 5.30035347e-02, 8.30388665e-02, 1.76678449e-02,
          5.30035328e-03, 1.21908128e-01, 1.21908128e-01, 8.65724385e-02,
          1.80212021e-01 ]
      - [ 0., 1.25786159e-02, 2.51572318e-02, 2.51572318e-02,
          2.51572318e-02, 2.51572318e-02, 1.50943398e-02, 0.,
          7.54716992e-03, 3.14465426e-02, 3.14465426e-02, 3.14465426e-02,
          3.14465426e-02, 3.14465426e-02, 3.14465426e-02, 1.00628929e-02,
          2.38993708e-02, 2.13836469e-02, 5.03144646e-03, 3.14465426e-02,
          1.00628929e-02, 0., 1.76100638e-02, 2.26415098e-02,
          2.51572318e-02, 1.00628929e-02, 3.77358496e-03, 3.14465426e-02,
          2.51572323e-03, 0., 8.80503189e-03, 2.51572318e-02,
          2.51572318e-02, 1.00628929e-02, 5.03144646e-03, 3.14465426e-02,
          3.77358496e-03, 0., 1.13207549e-02, 2.51572318e-02,
          2.26415098e-02, 1.76100638e-02, 0., 2.76729558e-02,
          1.76100638e-02, 5.03144646e-03, 2.64150947e-02, 1.88679248e-02,
          7.54716992e-03, 2.38993708e-02, 0., 1.00628929e-02,
          3.14465426e-02, 3.14465426e-02, 3.01886797e-02, 3.77358496e-03,
          0., 5.03144646e-03, 0., 0., 1.25786159e-02, 1.50943398e-02,
          7.54716992e-03, 0., 1.28301889e-01, 2.06289321e-01,
          1.32075474e-01, 1.06918238e-01, 1.11949682e-01, 1.35849059e-01,
          1.38364777e-01, 4.02515717e-02, 1.11949682e-01, 1.32075474e-01,
          7.04402551e-02, 1.88679248e-01, 1.34591192e-01, 1.08176105e-01,
          1.48427680e-01, 1.05660379e-01, 6.66666701e-02, 1.03144661e-01,
          6.28930777e-02, 6.54088035e-02, 1.01886794e-01, 1.04402520e-01,
          1.03144661e-01, 2.31446549e-01 ]
      - [ 0., 1.75131345e-03, 8.75656772e-03, 8.75656772e-03,
          8.75656772e-03, 7.00525381e-03, 0., 0., 0., 3.67775820e-02,
          4.37828377e-02, 4.37828377e-02, 4.37828377e-02, 4.37828377e-02,
          1.92644484e-02, 0., 1.05078807e-02, 4.02802117e-02,
          8.75656772e-03, 3.50262709e-02, 2.62697022e-02, 2.10157614e-02,
          3.67775820e-02, 0., 1.75131354e-02, 2.62697022e-02, 0.,
          3.15236412e-02, 8.75656772e-03, 0., 4.37828377e-02, 0.,
          1.57618206e-02, 3.15236412e-02, 0., 3.15236412e-02,
          8.75656772e-03, 0., 4.37828377e-02, 0., 3.50262690e-03,
          4.02802117e-02, 1.22591946e-02, 2.10157614e-02, 3.85288969e-02,
          2.80210152e-02, 3.85288969e-02, 0., 0., 1.40105076e-02,
          1.05078807e-02, 1.75131345e-03, 3.67775820e-02, 4.20315228e-02,
          8.75656772e-03, 0., 0., 0., 0., 0., 0., 0., 0., 0.,
          3.50262709e-02, 2.31173381e-01, 1.78633973e-01, 1.27845883e-01,
          1.31348506e-01, 1.82136610e-01, 1.13835372e-01, 0.,
          4.72854637e-02, 1.90893173e-01, 8.40630457e-02, 1.73380032e-01,
          1.71628729e-01, 1.41856387e-01, 1.90893173e-01, 0.,
          5.07880896e-02, 8.93169865e-02, 1.75131354e-02, 1.75131354e-02,
          1.24343261e-01, 1.06830120e-01, 8.75656754e-02, 1.78633973e-01 ]
      - [ 0., 0., 0., 0., 0., 0., 0., 0., 0., 2.50481702e-02,
          4.23892103e-02, 4.81695570e-02, 4.81695570e-02, 4.81695570e-02,
          2.89017335e-02, 0., 1.15606934e-02, 4.43159938e-02,
          1.92678235e-02, 4.43159938e-02, 3.27553004e-02, 1.92678235e-02,
          4.04624268e-02, 7.70712923e-03, 1.92678235e-02, 1.92678235e-02,
          0., 2.89017335e-02, 3.85356462e-03, 0., 2.11946052e-02,
          9.63391177e-03, 1.92678235e-02, 2.11946052e-02, 0.,
          2.69749518e-02, 9.63391177e-03, 0., 2.69749518e-02,
          9.63391177e-03, 1.15606934e-02, 4.43159938e-02, 0.,
          1.34874759e-02, 4.23892103e-02, 2.89017335e-02, 4.62427735e-02,
          5.78034669e-03, 0., 3.66088636e-02, 7.70712923e-03, 0.,
          3.08285169e-02, 3.85356471e-02, 1.73410401e-02, 0., 0., 0., 0.,
          0., 0., 0., 0., 0., 0., 2.40847781e-01, 2.19653189e-01,
          1.02119461e-01, 1.13680154e-01, 1.92678228e-01, 1.31021202e-01,
          0., 6.16570339e-02, 1.90751448e-01, 6.93641603e-02,
          1.61849707e-01, 1.67630062e-01, 1.34874761e-01, 1.81117535e-01,
          3.27553004e-02, 4.23892103e-02, 7.32177272e-02, 0., 0.,
          1.21387288e-01, 1.19460501e-01, 6.74373806e-02, 1.73410401e-01 ]
      - [ 0., 0., 0., 0., 0., 0., 0., 0., 8.15217383e-03, 6.52173907e-02,
          3.26086953e-02, 0., 0., 0., 2.71739135e-03, 2.98913047e-02,
          2.71739135e-03, 6.79347813e-02, 1.35869561e-02, 0., 0.,
          1.63043477e-02, 5.97826093e-02, 4.34782617e-02, 0.,
          5.43478243e-02, 0., 0., 3.53260860e-02, 6.79347813e-02,
          2.98913047e-02, 2.71739135e-03, 0., 5.43478243e-02,
          5.43478271e-03, 5.16304336e-02, 5.70652187e-02, 1.35869561e-02,
          0., 0., 5.43478271e-03, 6.79347813e-02, 5.97826093e-02,
          4.89130430e-02, 2.71739135e-03, 0., 0., 0., 8.15217383e-03,
          6.52173907e-02, 2.71739122e-02, 0., 0., 0., 0., 0., 0., 0., 0.,
          0., 0., 0., 0., 0., 0., 1.38586953e-01, 2.03804344e-01,
          1.90217391e-01, 1.82065219e-01, 1.84782609e-01, 1.00543477e-01,
          0., 2.44565215e-02, 3.75000000e-01, 1.38586953e-01,
          1.00543477e-01, 9.51086953e-02, 9.78260860e-02, 9.23913047e-02,
          7.60869607e-02, 6.25000000e-02, 6.52173907e-02, 0., 0.,
          7.33695626e-02, 6.52173907e-02, 9.78260860e-02, 4.07608710e-02 ]
      - [ 1.21396054e-02, 2.57966612e-02, 0., 0., 0., 0., 0., 0.,
          3.03490143e-02, 3.79362665e-02, 0., 0., 0., 0., 1.51745072e-02,
          1.82094090e-02, 3.03490143e-02, 3.33839133e-02, 0., 0.,
          3.03490134e-03, 2.12443098e-02, 3.79362665e-02, 3.03490143e-02,
          3.03490143e-02, 1.66919567e-02, 0., 1.06221549e-02,
          3.33839133e-02, 3.79362665e-02, 3.79362665e-02, 1.66919567e-02,
          3.03490143e-02, 2.27617603e-02, 1.51745072e-02, 3.79362665e-02,
          3.79362665e-02, 3.18664648e-02, 1.36570558e-02, 0.,
          3.03490143e-02, 3.79362665e-02, 3.79362665e-02, 3.79362665e-02,
          2.57966612e-02, 3.03490134e-03, 0., 0., 3.03490143e-02,
          3.79362665e-02, 3.18664648e-02, 1.21396054e-02, 0., 0., 0., 0.,
          1.97268594e-02, 2.27617603e-02, 3.03490134e-03, 0., 0., 0., 0.,
          0., 3.79362665e-02, 1.01669200e-01, 1.56297415e-01,
          1.83611527e-01, 1.89681336e-01, 1.72989383e-01, 1.12291351e-01,
          4.55235206e-02, 2.13960558e-01, 2.35204846e-01, 8.80121365e-02,
          9.86342952e-02, 1.00151740e-01, 9.40819457e-02, 1.04704097e-01,
          6.52503818e-02, 3.03490143e-02, 3.79362665e-02, 3.79362665e-02,
          0., 6.82852790e-02, 3.33839171e-02, 3.79362665e-02,
          1.01669200e-01 ]
      - [ 0., 0., 0., 0., 0., 0., 0., 0., 0., 0., 0., 0., 0., 0., 0., 0.,
          3.69003695e-03, 7.01107010e-02, 0., 0., 0., 0., 2.21402217e-02,
          1.84501838e-02, 0., 7.38007352e-02, 0., 0., 1.10701108e-02,
          7.01107010e-02, 8.48708451e-02, 2.58302577e-02, 0.,
          7.38007352e-02, 0., 2.21402217e-02, 8.48708451e-02,
          4.79704812e-02, 3.69003695e-03, 0., 0., 7.38007352e-02,
          4.79704812e-02, 8.48708451e-02, 1.84501838e-02, 0., 0., 0., 0.,
          7.38007352e-02, 6.64206669e-02, 1.10701108e-02, 0., 0., 0., 0.,
          0., 1.10701108e-02, 0., 0., 0., 0., 0., 0., 0., 0.,
          1.14391141e-01, 2.65682638e-01, 2.32472315e-01, 2.25092247e-01,
          1.51291519e-01, 1.10701108e-02, 3.69003695e-03, 3.76383752e-01,
          1.14391148e-01, 1.18081175e-01, 1.14391141e-01, 1.18081182e-01,
          1.10701106e-01, 4.42804396e-02, 0., 0., 0., 0., 0., 0., 0., 0. ]
      - [ 1.93661973e-02, 3.52112688e-02, 8.80281720e-03, 0., 0., 0., 0.,
          3.52112669e-03, 3.52112688e-02, 4.40140851e-02, 1.23239439e-02,
          0., 0., 0., 2.64084507e-02, 3.16901393e-02, 3.52112688e-02,
          2.46478878e-02, 0., 0., 1.76056335e-03, 3.34507041e-02,
          4.40140851e-02, 1.40845068e-02, 3.52112688e-02, 8.80281720e-03,
          0., 5.28169004e-03, 3.52112688e-02, 4.40140851e-02,
          2.81690136e-02, 0., 3.52112688e-02, 1.05633801e-02,
          7.04225339e-03, 4.22535203e-02, 4.22535203e-02, 1.23239439e-02,
          0., 0., 3.52112688e-02, 4.40140851e-02, 4.40140851e-02,
          3.69718298e-02, 7.04225339e-03, 0., 0., 0., 3.52112688e-02,
          4.40140851e-02, 3.34507041e-02, 5.28169004e-03, 0., 0., 0., 0.,
          1.40845068e-02, 2.46478878e-02, 0., 0., 0., 0., 0., 0.,
          6.69014081e-02, 1.49647892e-01, 1.53169021e-01, 1.56690150e-01,
          1.49647892e-01, 1.67253524e-01, 1.17957748e-01, 3.87323946e-02,
          2.44718313e-01, 2.35915497e-01, 1.05633803e-01, 8.97887275e-02,
          8.62676054e-02, 8.97887349e-02, 9.85915512e-02, 4.92957719e-02,
          6.33802786e-02, 4.40140851e-02, 5.45774661e-02, 1.23239439e-02,
          7.92253539e-02, 7.04225302e-02, 5.63380271e-02, 1.60211265e-01 ]
      - [ 1.02389082e-02, 1.53583614e-02, 0., 0., 0., 0., 1.70648459e-03,
          1.53583614e-02, 3.41296941e-02, 4.26621176e-02, 0., 0., 0.,
          3.41296918e-03, 3.24232094e-02, 3.41296941e-02, 3.41296941e-02,
          3.24232094e-02, 0., 0., 8.53242353e-03, 3.58361788e-02,
          4.26621176e-02, 2.55972687e-02, 3.41296941e-02, 1.70648471e-02,
          0., 1.36518767e-02, 3.92491482e-02, 4.26621176e-02,
          2.04778165e-02, 0., 3.41296941e-02, 1.02389082e-02,
          1.19453929e-02, 4.26621176e-02, 3.92491482e-02, 1.19453929e-02,
          0., 0., 3.41296941e-02, 4.26621176e-02, 4.26621176e-02,
          3.58361788e-02, 8.53242353e-03, 0., 0., 0., 3.41296941e-02,
          4.26621176e-02, 2.90102381e-02, 1.70648459e-03, 0., 0., 0., 0.,
          2.38907859e-02, 1.87713318e-02, 0., 0., 0., 0., 0., 0.,
          4.26621139e-02, 1.46757677e-01, 1.79180890e-01, 1.67235494e-01,
          1.50170654e-01, 1.63822532e-01, 1.07508533e-01, 4.26621176e-02,
          2.38907859e-01, 2.21843004e-01, 8.36177468e-02, 9.38566551e-02,
          9.55631435e-02, 9.38566551e-02, 9.72696245e-02, 7.50853270e-02,
          4.43686023e-02, 4.43686023e-02, 2.55972706e-02, 1.70648452e-02,
          8.02047774e-02, 6.65529072e-02, 4.43686023e-02, 1.45051196e-01 ]
      - [ 7.71208247e-03, 3.59897166e-02, 0., 0., 0., 0., 1.79948583e-02,
          0., 2.82776356e-02, 6.42673522e-02, 5.14138816e-03, 0., 0.,
          3.59897166e-02, 5.14138825e-02, 0., 2.57069413e-02,
          4.11311053e-02, 0., 0., 4.37017977e-02, 6.16966598e-02,
          2.05655526e-02, 0., 2.57069413e-02, 1.54241649e-02,
          2.57069408e-03, 4.11311053e-02, 5.65552711e-02, 1.28534706e-02,
          0., 0., 2.57069413e-02, 4.37017977e-02, 4.11311053e-02,
          5.65552711e-02, 1.02827763e-02, 0., 0., 0., 3.08483299e-02,
          6.42673522e-02, 4.88431863e-02, 2.57069408e-03, 0., 0., 0., 0.,
          2.82776356e-02, 4.88431863e-02, 2.57069408e-03, 0., 0., 0., 0.,
          0., 0., 2.57069408e-03, 0., 0., 0., 0., 0., 0., 6.16966560e-02,
          1.85089976e-01, 1.92802057e-01, 1.54241651e-01, 1.77377895e-01,
          1.46529555e-01, 7.96915144e-02, 2.57069408e-03, 1.72236502e-01,
          3.16195369e-01, 1.00257069e-01, 1.00257069e-01, 1.10539846e-01,
          1.10539846e-01, 8.99742916e-02, 0., 1.28534706e-02,
          8.22622105e-02, 4.37017977e-02, 1.79948583e-02, 1.28534704e-01,
          5.65552711e-02, 8.74035954e-02, 1.59383029e-01 ]
      - [ 0., 1.16472542e-02, 0., 0., 0., 0., 0., 0., 1.83028281e-02,
          3.99334431e-02, 1.66389346e-03, 0., 0., 1.66389346e-03,
          2.32945085e-02, 1.83028281e-02, 2.49584019e-02, 3.16139758e-02,
          0., 0., 8.31946731e-03, 3.16139758e-02, 4.15973365e-02,
          2.32945085e-02, 2.49584019e-02, 3.16139758e-02, 0.,
          6.65557384e-03, 3.82695496e-02, 4.15973365e-02, 3.49417627e-02,
          1.66389346e-03, 2.49584019e-02, 4.15973365e-02, 2.49584019e-02,
          4.15973365e-02, 4.15973365e-02, 2.49584019e-02, 3.32778692e-03,
          0., 2.82861888e-02, 4.15973365e-02, 4.15973365e-02,
          4.15973365e-02, 2.16306150e-02, 1.66389346e-03, 0., 0.,
          3.16139758e-02, 4.15973365e-02, 3.82695496e-02, 1.49750412e-02,
          0., 0., 0., 0., 8.31946731e-03, 2.32945085e-02, 6.65557384e-03,
          0., 0., 0., 0., 0., 1.16472542e-02, 1.03161395e-01,
          1.61397666e-01, 1.79700494e-01, 2.02995002e-01, 1.76372707e-01,
          1.26455903e-01, 3.82695496e-02, 1.61397666e-01, 2.62895167e-01,
          1.13144755e-01, 1.04825288e-01, 1.09816968e-01, 1.01497501e-01,
          1.03161395e-01, 4.32612300e-02, 1.99667215e-02, 3.99334431e-02,
          1.16472542e-02, 0., 5.99001646e-02, 4.32612300e-02,
          4.15973365e-02, 7.32113123e-02 ]
      - [ 0., 0., 0., 0., 0., 0., 0., 7.75193796e-03, 5.16795879e-03,
          4.65116277e-02, 0., 0., 0., 0., 3.61757092e-02, 3.87596898e-02,
          5.16795879e-03, 6.45994842e-02, 0., 0., 5.16795879e-03,
          4.39276472e-02, 6.20155036e-02, 1.80878546e-02, 0.,
          5.42635657e-02, 0., 1.55038759e-02, 5.68475462e-02,
          5.94315231e-02, 1.80878546e-02, 0., 0., 5.42635657e-02,
          2.58397926e-02, 6.45994842e-02, 5.16795851e-02, 7.75193796e-03,
          0., 0., 5.16795879e-03, 6.45994842e-02, 6.45994842e-02,
          3.61757092e-02, 2.58397940e-03, 0., 0., 0., 1.03359176e-02,
          5.16795851e-02, 2.32558139e-02, 0., 0., 0., 0., 0., 0., 0., 0.,
          0., 0., 0., 0., 0., 7.75193796e-03, 1.26614988e-01,
          1.98966414e-01, 2.04134360e-01, 2.04134360e-01, 1.73126623e-01,
          8.52713138e-02, 0., 2.58397944e-02, 3.35917324e-01,
          1.13695092e-01, 1.16279066e-01, 1.16279073e-01, 1.11111104e-01,
          1.16279066e-01, 6.45994842e-02, 3.87596898e-02, 4.65116277e-02,
          0., 7.75193796e-03, 5.16795851e-02, 7.49353990e-02,
          4.65116277e-02, 8.78552943e-02 ]
      - [ 0., 1.57728698e-02, 0., 0., 0., 0., 0., 0., 1.26182968e-02,
          7.88643509e-02, 0., 0., 0., 6.30914839e-03, 5.36277592e-02, 0.,
          1.57728698e-02, 5.67823350e-02, 0., 3.15457419e-03,
          3.78548913e-02, 7.57097825e-02, 5.99369071e-02, 0.,
          1.57728698e-02, 3.78548913e-02, 6.30914839e-03, 5.99369071e-02,
          7.88643509e-02, 4.10094634e-02, 3.15457419e-03, 0.,
          1.57728698e-02, 7.57097825e-02, 6.94006309e-02, 6.30914792e-02,
          9.46372282e-03, 0., 0., 0., 9.46372282e-03, 6.94006309e-02,
          2.83911675e-02, 0., 0., 0., 0., 0., 0., 0., 0., 0., 0., 0., 0.,
          0., 0., 0., 0., 0., 0., 0., 0., 0., 1.57728698e-02,
          1.51419550e-01, 2.49211356e-01, 2.42902204e-01, 2.33438492e-01,
          1.07255518e-01, 0., 0., 6.94006309e-02, 3.34384859e-01,
          1.04100950e-01, 1.26182958e-01, 1.26182958e-01, 1.23028398e-01,
          1.16719238e-01, 0., 0., 7.88643509e-02, 1.57728698e-02, 0.,
          9.77917984e-02, 5.36277592e-02, 7.88643509e-02, 8.83280709e-02 ]
      - [ 0., 0., 0., 0., 0., 0., 0., 0., 0., 6.08519278e-03,
          2.83975657e-02, 2.02839752e-03, 2.23123729e-02, 3.85395549e-02,
          1.21703856e-02, 0., 0., 4.25963476e-02, 3.85395549e-02,
          4.66531441e-02, 4.25963476e-02, 3.44827585e-02, 4.05679531e-02,
          0., 1.01419883e-02, 3.44827585e-02, 0., 3.65111567e-02,
          6.08519278e-03, 0., 3.44827585e-02, 8.11359007e-03,
          1.01419883e-02, 3.44827585e-02, 0., 3.44827585e-02,
          4.05679503e-03, 0., 2.83975657e-02, 1.01419883e-02,
          2.02839752e-03, 4.86815423e-02, 3.44827585e-02, 5.07099405e-02,
          3.85395549e-02, 2.63691675e-02, 4.66531441e-02, 0., 0.,
          1.21703856e-02, 3.44827585e-02, 4.05679503e-03, 2.43407711e-02,
          4.66531441e-02, 2.02839766e-02, 0., 0., 0., 0., 0., 0.,
          4.05679503e-03, 0., 0., 0., 1.09533466e-01, 2.45436102e-01,
          1.29817441e-01, 1.21703856e-01, 2.47464508e-01, 1.41987830e-01,
          4.05679503e-03, 2.23123748e-02, 1.78498983e-01, 1.35902643e-01,
          1.74442187e-01, 1.37931034e-01, 1.50101423e-01, 1.82555780e-01,
          1.82555784e-02, 2.83975657e-02, 2.83975657e-02, 0., 0.,
          6.69371188e-02, 4.25963476e-02, 3.44827585e-02, 7.50507116e-02 ]
      - [ 0., 0., 0., 0., 0., 0., 0., 0., 0., 0., 0., 0., 0., 0., 0., 0.,
          4.69483575e-03, 4.69483584e-02, 3.52112688e-02, 2.58215964e-02,
          2.34741792e-02, 2.11267602e-02, 2.34741787e-03, 0.,
          1.17370896e-02, 4.46009375e-02, 2.34741792e-02, 4.92957756e-02,
          4.22535203e-02, 4.46009375e-02, 3.99061032e-02, 0.,
          2.11267602e-02, 2.81690136e-02, 0., 3.75586860e-02,
          2.34741787e-03, 4.69483575e-03, 4.69483584e-02, 0.,
          9.38967150e-03, 5.63380271e-02, 4.69483584e-02, 5.86854443e-02,
          3.28638479e-02, 3.28638479e-02, 4.46009375e-02, 0., 0.,
          2.34741792e-02, 3.52112688e-02, 1.40845068e-02, 3.05164326e-02,
          3.99061032e-02, 1.87793430e-02, 0., 0., 0., 0., 0., 0., 0., 0.,
          0., 0., 0., 1.59624413e-01, 2.55868554e-01, 1.40845075e-01,
          2.81690121e-01, 1.61971837e-01, 0., 4.69483584e-02,
          1.99530512e-01, 1.40845075e-01, 1.85446009e-01, 1.31455392e-01,
          1.43192485e-01, 1.52582154e-01, 0., 0., 0., 0., 0., 0., 0., 0.,
          0. ]
      - [ 0., 4.68384055e-03, 8.19672085e-03, 0., 8.19672085e-03,
          2.34192032e-02, 1.28805619e-02, 0., 3.51288053e-03,
          2.81030443e-02, 2.92740054e-02, 1.52224824e-02, 2.57611237e-02,
          2.92740054e-02, 2.92740054e-02, 4.68384055e-03, 1.40515221e-02,
          2.45901644e-02, 1.87353622e-02, 2.92740054e-02, 2.34192032e-02,
          1.28805619e-02, 2.45901644e-02, 1.52224824e-02, 1.87353622e-02,
          1.28805619e-02, 1.17096014e-03, 2.92740054e-02, 1.17096016e-02,
          0., 1.17096016e-02, 2.34192032e-02, 2.10772827e-02,
